-0.1595910 0.0328269 0.6774181 0.6774181 -0.2537327 0.2939537 0.1856399 0.1310120 0.1856399 0.6774181 0.1856399 -0.2537327 -0.2639049 -0.0224454 0.2915332 0.0853816 -0.0037784 -0.0026963 -0.2929510 -0.0030867 -0.0029945 0.4255410 -0.0486058 0.0088081 0.1393125 -0.0200980 -0.0352945 -0.0049701 -0.0544802 0.0355729 -0.0257805 -0.0852777 -0.1040979 0.0071710 0.0472505 -0.1340955 -0.1349877 0.0262659 0.0391188 -0.0956699 -0.0043956 -0.0628983 -0.1728175 -0.0010870 -0.0151986 0.1907690 -0.0479948 -0.0043693 -0.0049567 0.0606269 0.4492263 0.0941589 -0.0049536 -0.0280189 -0.0465706 -0.0798456 0.0758569 -0.7515269 -0.0952003 0.0227974 -0.0070323 0.0035844 -0.3059223 0.0421551 -0.0008409 -0.0032595 0.9306505 0.1357837 -0.0344032 0.0335694 0.0865357 0.0272524 0.0501001 -0.2358242 -0.0023371 -0.0020357 -0.0686782 -0.4748171 -0.0013823 -0.0127685 -0.0127685 0.0094381 0.2881445 -0.0084869 0.0272326 -0.0051098 -0.1137224 -0.0235327 -0.2740338 0.0160198 -0.0142618 -0.0008409 -0.0065767 0.0062393 -0.0032595 -0.2805615 -0.0019358 -0.0132313 -0.0015381 0.2917110 -0.0019617 -0.0024213 -0.0038174 -0.3084259 -0.5437149 -0.5656168 -0.0087393 0.4652582 0.0455798 -0.0114426 0.0355729 -0.0206074 -0.0414608 0.0178311 0.0047658 -0.0050705 0.0875604 -0.0590859 0.0871307 -0.0686782 -0.0134268 -0.5079952 -0.0686782 -0.0019617 -0.0010870 -0.0265232 0.1232213 -0.0134268 0.1733349 -0.2493641 -0.0020262 -0.0014001 -0.0020357 -0.0013736 0.2362888 -0.1642050 -0.1207201 -0.0686782 -0.0014001 -0.1256353 0.2905503 1.0157227 -0.4405008 -0.0268045 0.0100201 0.0652335 -0.0333585 0.3131909 -0.1292968 0.0673060 0.0881746 0.0388987 0.0758569 -0.0025627 -0.0549374 -0.1729973 -0.0291543 0.0116940 -0.1166213 -0.0821050 -0.0014618 0.0147637 0.2789961 0.0263523 0.0335694 0.4516506 -0.0339748 0.0217519 0.1299258 -0.3496926 -0.0139270 -0.0074305 -0.0797829 0.0093391 -0.0553344 0.4519087 -0.0044075 0.0875604 -0.0735459 -0.0008409 -0.1986324 0.0068310 0.0196825 -0.0089186 -0.0046877 0.0184449 -0.0044075 -0.0030900 -0.1986324 -0.0337573 -0.0044075 -0.0275085 -0.2135361 0.4188849 0.0353989 -0.0065863 0.1187793 0.0387091 0.4134222 -0.3253102 -0.0009620 -0.0134268 -0.0035131 0.0127809 -0.0438253 -0.0049701 -0.2455464 0.0852708 -0.0046877 -0.0116025 0.1244313 -0.0028159 -0.2661260 -0.0009620 -0.0686782 -0.0226069 -0.0197955 -0.0049701 0.0095789 -0.0686782 -0.0085570 -0.0337573 -0.4212041 0.0888657 0.1187793 -0.0043693 0.0446878 -0.0137985 0.2440151 -0.0470372 0.0350529 -0.0043693 -0.0229971 0.0068310 -0.0421597 0.0757961 -0.0686782 -0.0193576 -0.0438253 0.0835051 0.1453054 -0.3273048 0.0801404 -0.0202583 -0.1148644 -0.0049701 0.0078874 -0.0285703 0.0779036 -0.0392055 0.0751698 -0.0317581 -0.1223242 -0.0686782 -0.1254936 -0.0598652 0.0395067 -0.0046485 -0.0088760 -0.1121936 -0.3944687 0.2308690 -0.0746917 -0.4737112 -0.3183286 -0.0086396 -0.0047785 -0.0768987 -0.0015381 0.1277152 0.0015625 0.2083703 -0.0187648 -0.1328154 -0.1664029 0.1076060 -0.0058209 -0.0246355 0.0186860 -0.0008409 -0.0673472 -0.0200627 0.7741611 0.3530287 -0.0025698 -0.2005729 0.0139886 -0.0200627 -0.1496073 0.0087889 -0.0082607 -0.0035220 0.1994923 0.0065327 -0.0019358 0.0426133 0.0426133 0.0087889 -0.2413804 -0.0049701 -0.0317581 -0.0023371 -0.0207360 -0.0086241 0.1015758 -0.0872275 -0.0049701 0.0094888 -0.0366543 -0.0025627 0.0263523 0.2724774 0.0742646 0.0979017 -0.0936502 -0.0012523 -0.0118938 -0.4724430 -0.0039683 -0.0140665 -0.0027277 0.2812730 0.0972499 -0.1091834 0.2477852 -0.0267696 -0.0193576 -0.0032900 0.0274691 0.2538039 0.0465626 0.0186860 0.0299352 0.3125272 0.0271423 -0.0012852 -0.2985698 0.0093747 -0.0049701 0.1290227 0.2205805 0.4706984 -0.0090697 0.5535922 0.1539801 0.3788104 -0.0193576 -0.2813059 -0.0180600 0.3854559 -0.0057541 0.0059901 -0.0262476 -0.0168742 0.4461442 -0.1391683 0.2620058 -0.0047762 0.1773268 -0.0046877 0.9530347 -0.1208695 0.0100201 -0.0068382 -0.0043438 -0.0198611 0.2225553 0.0355729 0.0793793 -0.0016549 -0.0078110 -0.0317581 -0.0035139 0.0347948 -0.0686782 1.0578778 -0.0207363 0.1592136 0.0094381 -0.0165924 -0.1932451 -0.0258981 -0.0211204 0.0395952 -0.0312470 -0.0229971 -0.0084054 -0.0039683 0.3300321 -0.2283446 0.3103604 -0.0025525 -0.0160955 0.0228813 -0.1322197 0.2567043 -0.0042578 -0.0025799 0.0031657 -0.3944687 -0.0533817 0.0068310 -0.0044367 -0.0049701 -0.0792511 0.0186860 -0.0035131 -0.0074009 -0.0590661 -0.0835870 0.1197317 -0.0051098 0.0856235 -0.0014618 -0.1101656 0.0025813 -0.0010870 0.0825460 0.0065327 -0.0364807 0.9489727 0.0165153 0.0094381 0.0684818 0.0585303 -0.2401656 -0.0030867 0.0545692 -0.0137985 -0.2630459 -0.0686782 0.1509105 -0.0081509 -0.0153052 -0.3138796 -0.0009620 -0.0377131 -0.2129822 -0.1172160 -0.0532963 -0.0298748 0.0278512 -0.0159599 0.1509022 -0.4923007 -0.0812020 -0.0166721 -0.0539689 0.0127809 0.0678428 -0.0571924 -0.1524777 -0.1591242 -0.0193576 -0.1932451 -0.0067559 0.2099557 0.1965664 -0.1223242 0.1994923 -0.0912999 0.7492436 0.0631141 0.2598512 0.1092590 0.0228323 -0.1318216 -0.0191258 0.0646215 0.2905503 -0.1333137 -0.9082647 -0.0229971 -0.0537835 -0.4019824 0.1729276 -0.0090697 -0.4455449 -0.1889703 0.0099839 -0.0539689 -0.1340955 -0.0090071 0.0093391 0.1340297 -0.0238956 -0.0031300 0.0094123 -0.0262476 -0.0262476 0.2793352 0.0391188 -0.0489907 -0.2493641 0.2056850 -0.2720767 -0.0044367 -0.1734539 0.0888657 -0.1422553 -0.0414608 -0.0211204 -0.0238956 -0.0020609 0.0184947 -0.1322197 -0.2985698 -0.0032838 0.3193666 0.3193666 -0.1000912 -0.0235327 0.2303280 -0.1897163 0.0425490 0.2056850 0.0262659 -0.0686782 0.1971325 0.1010503 -0.0414608 -0.2905714 0.0189579 0.2335291 -0.0314786 -0.0014001 -0.0193576 0.0257504 0.0064439 -0.0137985 -0.1167202 -0.0219546 0.0922158 0.2847057 -0.0084978 -0.0046136 -0.5354455 -0.0692275 0.0232111 -0.0474924 0.0210036 0.0128622 1.1976715 -0.0167172 -0.0032900 0.4595605 0.1376527 -0.0010870 0.0125126 -0.0009620 -0.0046136 0.0087889 0.0169831 0.0502152 -0.0020660 0.0383853 0.1262220 0.0625686 0.3893400 -0.0852777 -0.0020609 -0.2800865 -0.0028744 0.2340347 -0.0043464 -0.0060850 -0.0046930 0.0128622 -0.0032795 -0.0010870 -0.1516398 -0.1351227 -0.0357264 -0.0258748 -0.3615678 0.0100201 -0.0072815 0.0262659 -0.0159599 -0.0009620 0.0615040 0.0112217 -0.0985925 -0.4780801 -0.0069975 0.2144739 0.1326645 0.0178311 0.0833054 -0.0259488 -0.2630459 0.0350529 -0.0039683 0.0324520 -0.1386751 -0.0038347 -0.2185509 0.0856235 0.8653867 -0.1799893 0.0415156 0.0528955 -0.0406641 -0.0166143 -0.2793154 0.0453145 -0.1970171 -0.0193576 -0.0669859 -0.0965407 -0.0144971 -0.6781003 0.0068310 0.0863292 -0.0019617 0.0604334 0.0600165 -0.0114795 0.0184449 -0.0116025 0.2785768 0.5175423 0.0267892 -0.6922552 -0.0011501 -0.0129562 -0.0294048 -0.1832291 -0.1101656 -0.0012485 -0.0021788 -0.0648582 -0.1445682 -0.0219203 -0.0203372 -0.0010870 -0.0160919 -0.2317819 0.0061326 -0.0782953 0.0048206 0.0226406 -0.0049701 -0.4464665 -0.0102139 0.0287061 0.0025813 -0.2600665 0.1346546 0.0355729 -0.0060571 0.0257504 -0.1422927 0.0703687 -0.3018536 -0.0152190 -0.0098211 -0.0686782 -0.0111859 0.0433745 -0.0490258 0.0186860 0.0094888 -0.0053744 -0.0686782 0.0100201 -0.0160955 -0.0770465 -0.0039683 -0.1281270 -0.0686782 0.0180476 0.1303390 0.0190015 -0.0243096 0.1371046 0.4176759 -0.0009620 -0.0686782 1.0721064 0.0087889 0.1863957 0.0421551 0.0257504 -0.0046877 0.0127809 -0.0160138 -0.1058099 0.0186860 -0.1705433 0.0086169 -0.0242619 0.3543165 -0.0976122 0.1219456 0.0087889 0.0127809 -0.0058209 0.0835051 0.0312149 0.1861787 0.0127809 -0.0686782 -0.0096987 0.0742646 -0.0648582 -0.0025525 0.0065327 -0.0069975 -0.0039683 0.1242168 -0.0193576 0.0529455 -0.2511106 0.8952675 0.0209244 0.1994923 0.0671055 0.0257504 0.2151231 0.0277615 -0.0314786 0.0228323 -0.0052455 -0.0014618 -0.1156124 -0.0077750 -0.0586582 -0.0016549 0.0389560 0.2056850 0.3777024 -0.0014618 0.0210036 0.0117257 -0.0686782 -0.0012485 0.1269410 -0.0009620 0.0127809 -0.2805615 0.1326645 0.0818719 -0.1054394 -0.0366543 0.0009743 0.0166090 -0.0031676 0.0117220 -0.0207360 -0.0686782 0.1310841 -0.0018772 -0.0109494 -0.0043956 -0.0014518 0.1310841 -0.2874437 0.0073075 -0.0031300 -0.2401656 0.0312149 0.0155601 0.0529455 -0.4731159 0.0312149 0.0225009 -0.0380161 0.0174878 -0.0314786 0.1108421 0.2724774 0.0395067 0.1232213 0.1371046 0.0100201 -0.0025799 0.0730919 -0.2929510 0.1864319 0.0421551 -0.0489907 0.1483003 -0.0056086 -0.0014543 -0.0089186 -0.0019418 -0.0011501 -0.1271352 -0.0920525 -0.3929677 -0.0051098 -0.0077750 -0.2719397 -0.0362086 -0.0003646 -0.0116796 -0.2526580 0.1696055 -0.0160138 -0.0046877 0.4762061 -0.0230993 -0.3590867 -0.0246355 -0.0153306 -0.0022356 0.2492607 -0.1648790 -0.0039683 -0.0014618 0.0030195 -0.0039683 -0.0669859 -0.0669859 -0.0258748 -0.0012728 -0.0282627 0.0863292 -0.0317581 -0.0375141 -0.0008409 0.2278960 -0.0046877 -0.0044741 -0.0792511 -0.0010870 0.0290889 0.0244832 -0.0686782 -0.0021788 0.0646215 0.0330237 0.0062286 -0.0075305 0.5781177 0.8352858 -0.1582832 -0.0458663 -0.5197505 0.1937983 -0.0082607 0.0276393 -0.1553314 0.1870116 -0.0025008 0.0088081 0.0388987 0.0180476 -0.1281270 0.4922874 0.2422783 -0.1482635 -0.0200627 0.0068310 -0.0256443 0.0144355 -0.0258707 -0.0012485 -0.0097972 -0.0082607 0.0881746 0.1232574 -0.0193576 -0.0430413 -0.0013736 -0.0011135 -0.9188926 -0.0146774 0.0094888 -0.1194897 -0.0193576 -0.0046001 -0.0311987 0.0080868 -0.1244076 -0.0179535 -0.0025799 -0.0768987 -0.0203372 0.0065327 -0.0012485 0.0094888 0.8653867 -0.0337573 -0.0054696 0.0887160 0.1867075 -0.2921175 0.0245571 -0.0019617 0.0730919 -0.0686782 0.2285062 0.0336236 0.1074598 0.2422783 0.3258537 0.0803429 -0.1773834 -0.0134268 0.2122136 -0.0022890 -0.0706043 0.0068310 -0.3095158 -0.3653477 0.0087680 0.0190929 0.1306280 -0.0337573 0.0232111 -0.0012522 -0.3377120 -0.0025008 0.0051930 -0.0009620 -0.0169399 -0.1111833 -0.0009620 0.5199157 -0.0840918 0.1595820 0.0537241 -0.1427888 -0.1270135 0.0358480 0.0100201 -0.0035139 -0.0014618 -0.1156124 -0.3860126 1.0499027 0.1784495 0.0127809 0.2992796 -0.0019617 -0.0031676 -0.0798456 -0.0285703 0.0347948 -0.0203372 0.1542349 -0.0364807 0.1592136 -0.0016648 -0.0016549 0.0130628 -0.0200627 -0.0291772 0.0236527 0.0221418 0.0306028 -0.0039683 0.1244313 -0.0049701 -0.1648790 0.1484434 -0.0042451 0.1942023 -0.1510145 0.0972499 -0.0070323 0.1280385 -0.0672307 -0.0009620 0.0952807 -0.0611973 0.0717698 0.0183222 0.0364252 -0.0361663 -0.0614602 -0.0139564 0.0703687 0.0100201 0.0178311 -0.0211861 -0.0381805 0.0416409 -0.0086571 -0.0488033 0.0640119 0.1832630 -0.0861880 0.0100201 -0.4455449 0.0312484 -0.0167670 0.1453054 0.0186860 0.2405357 0.0717698 -0.1698703 -0.8069031 0.0421551 0.1097915 0.0422752 -0.0030627 -0.0010870 -0.0229971 0.0600165 -0.1348314 0.0290889 -0.3214705 -0.0134268 -0.0030900 -0.0046930 0.1145843 -0.0129243 -0.0317581 -0.0129243 0.0256817 0.1227940 0.0118947 -0.0090781 -0.0051098 -0.0051098 -0.1006193 -0.2762132 0.2292785 -0.0105687 0.0083586 0.0256817 0.0215698 -0.0010870 -0.0862086 0.0113652 0.1097957 0.0087889 -0.3185577 0.0015625 0.0051930 -0.0019127 -0.1739837 -0.0074009 -0.0012523 -0.0746751 -0.1680119 0.0103204 0.1091768 -0.1740480 -0.0039683 0.0228577 -0.1156635 -0.0012523 -0.0100189 -0.1934393 -0.0027277 -0.0116796 0.2586290 -0.0010870 0.0622987 -0.0062105 -0.0104090 -0.2959006 0.1049757 -0.0193576 -0.0193576 -0.0147437 -0.0051098 0.1268677 -0.0016549 -0.0552187 -0.1101105 0.0421551 0.1898042 0.0114073 0.0104303 0.0068310 -0.0027277 0.3636336 0.0647695 0.3526363 0.2012714 -0.0230416 0.7881183 0.3426875 -0.0440878 0.0051930 -0.0016549 -0.0040834 0.0643398 -0.0317581 -0.0016549 -0.0167124 -0.0519747 -0.0046877 0.1153801 -0.3222688 -0.0010870 0.0378077 -0.0193576 -0.0449307 -0.0049701 0.3833603 0.0879612 0.4961243 0.1002880 -0.0019430 -0.0442982 -0.0059321 -0.0046877 -0.0009620 0.0313378 0.0065327 0.0184449 0.0452075 -0.0116025 -0.0039683 0.0127809 0.1557872 -0.0019617 0.0142913 -0.1937635 0.0187597 -0.0009620 -0.0193576 -0.0027277 0.0293254 0.0234606 0.2332713 -0.0015381 -0.0009620 -0.2576311 -0.0229692 -0.0062105 0.4562133 0.2332713 -0.0016549 -0.0113752 0.1802878 0.0469289 0.4654067 0.0087680 0.0437565 -0.5050275 -0.0116025 -0.0010870 -0.0193576 0.1402132 0.0036791 0.0256817 -0.0010870 -0.0162907 -0.0210082 0.0065327 0.1495115 1.0926994 0.1105366 -0.0351331 0.0100201 -0.0571876 0.0972499 0.1703724 0.1151483 -0.0513940 0.1275780 -0.0027277 -0.0720692 -0.5450859 -0.0624428 -0.2536353 0.0051930 -0.0769930 0.0087396 0.0068310 -0.0179535 0.1362420 -0.0857112 -0.0455958 -0.0010263 0.3829113 -0.1304508 0.2520391 0.0256817 -0.0019617 0.0068310 -0.0010870 -0.2942921 0.3740807 -0.2717806 -0.0804516 0.0193136 0.2074535 -0.1605049 0.0194209 -0.0013736 -0.0017453 -0.0037370 0.0087889 -0.5757470 -0.0012700 0.0311382 -0.0055884 -0.0364459 -0.0015381 0.1153801 -0.0086560 0.0142913 -0.0193576 -0.3104842 -0.0155708 0.0256817 -0.0123906 -0.3669305 0.0087889 -0.0114703 -0.0704752 -0.0342083 0.0791864 -0.1325824 0.1326842 -0.0030487 -0.0019617 -0.0193576 0.0184449 -0.0343099 -0.0010870 0.1866258 0.3069176 -0.0136667 -0.0230473 0.0104303 0.0296692 0.0127809 -0.0418863 -0.0253338 0.1244313 0.3833603 0.7609407 0.0087680 0.1524426 0.1808389 0.1205082 0.0087889 0.7336166 0.2933028 -0.3590867 0.0087889 0.0655535 -0.1157544 -0.1281270 -0.0015381 -0.0009620 0.1145533 -0.0051098 -0.0010870 0.2289280 0.0784354 -0.0317581 -0.0032595 -0.0010870 -0.1837951 -0.0102523 -0.1189034 0.0173371 0.1362420 -0.0012523 -1.0233689 0.0391265 0.1244313 -0.0090973 -0.2852518 -0.0351341 0.0065327 -0.0016549 0.0087889 -0.0010870 0.0065327 -0.2332582 -0.0050552 -0.0069318 -0.0049701 -0.0162628 0.0010563 0.9519855 0.3243060 -0.4716423 -0.0158156 0.0255170 0.0684818 0.0087889 -0.7561924 -0.0914882 -0.2162501 -0.0013486 0.2205947 -0.0011605 -0.0317581 0.1362420 -0.0009620 -0.0016549 0.1642309 0.4662478 -0.0123906 0.0194712 -0.0351331 -0.3132158 0.0326588 -0.0199202 -0.1463478 0.0178311 -0.2029289 0.0160215 -0.0566896 0.2054918 -0.0051098 0.0030773 -0.0032595 -1.1841703 0.2074535 -0.0046877 -0.0454954 -0.0204474 -0.0317581 -0.0051098 -0.0011605 -0.0019617 -0.1795126 0.2489650 -0.0010870 0.1586883 -0.0140455 -0.0019617 -0.1192401 -0.0051098 -0.0051098 0.0260893 -0.0027277 -0.1156635 -0.0116025 -0.0788575 0.0421551 -0.0019617 0.0065327 -0.0009620 -0.9343780 -0.0051098 0.0256817 0.0486327 0.0051930 -0.0051098 0.2162424 0.0276766 -0.1189161 -0.0317581 -0.0041707 0.0703687 0.2330949 -0.0117590 -0.0604569 -0.3163293 0.0437565 -0.0517592 -0.6553606 0.5374694 -0.2802970 -0.0675795 -0.5231646 0.9066970 -0.3569259 -0.1124973 0.0073533 0.0073533 -0.3200278 0.0073533 0.0073533 0.0829524 -0.3273811 -0.1124973 0.0829524 -0.1124973 0.0073533 0.0073533 0.0073533 0.0073533 0.0073533 0.0073533 0.0073533
-0.0187231 0.0763165 -0.5241329 -0.5241329 0.5881189 -0.4068591 -0.0297070 0.4753383 -0.0297070 -0.5241329 -0.0297070 0.5881189 -0.2649513 -0.0062625 -0.2775022 -0.0553669 0.1361196 0.0432665 0.3060955 0.0082322 -0.0088828 -0.1707926 -0.0058362 -0.0028353 -0.1286947 -0.1128905 -0.0031402 -0.0432575 0.2259498 -0.0306932 -0.1575629 -0.0437015 -0.0839573 -0.0022275 -0.0282017 0.1603935 0.1036399 -0.0042366 -0.0076460 -0.0133575 -0.0315076 -0.0852343 -0.0029413 -0.0036384 -0.3636327 -0.1209024 0.0363999 -0.0120097 -0.0157832 -0.0534670 -0.2859428 -0.0056551 0.0151904 0.0638805 0.1128275 0.0935404 -0.0538284 1.4207263 0.3896723 0.0187311 -0.1086284 -0.1195128 0.5977940 -0.0199572 -0.0020021 -0.0152717 -0.6508037 -0.1173034 -0.3842675 0.2629680 -0.0204205 0.0102280 -0.0121794 0.2208159 -0.0051591 0.0098506 0.1057213 -0.1878906 -0.0081466 0.0388947 0.0388947 -0.0027118 0.0969035 0.2128204 -0.0134304 0.0324894 -0.3605046 0.1032575 0.3658199 -0.0181894 0.0563210 -0.0020021 0.0263971 -0.0257791 -0.0152717 -0.2459225 0.0039345 -0.0000181 0.0020930 0.1185904 0.0431832 0.1144121 0.0816006 0.5631646 2.3549201 -0.3261770 0.0983533 -0.0422568 0.0799371 0.0230665 -0.0306932 -0.2075410 0.0803381 -0.0164679 0.0094230 0.0183659 -0.0090062 -0.0428449 -0.0490413 0.1057213 0.0204117 0.2783619 0.1057213 0.0431832 -0.0036384 0.0857641 -0.0048035 0.0204117 -0.3807146 -0.5075913 -0.0045073 -0.0006857 0.0098506 0.0039177 -0.0176819 -0.0767350 -0.1730743 0.1057213 -0.0006857 0.4217396 -0.2806786 -0.2992404 0.8247378 0.1278686 -0.0049921 -0.1175277 0.1318952 -0.1993915 -0.1708815 0.0201131 -0.0066872 -0.0213554 -0.0538284 0.0442846 -0.1024024 0.3273536 -0.1419474 -0.0159297 0.1125283 0.1261330 0.0066628 -0.0481174 -0.0170134 -0.1452536 0.2629680 -0.4066775 -0.1574614 -0.0056864 0.1247671 -0.0470806 -0.0216482 -0.0186804 -0.1781705 -0.0023712 -0.3578698 -0.0674062 -0.0174213 -0.0090062 -0.0294137 -0.0020021 0.2427592 -0.0031753 0.0406228 -0.5227984 -0.0210660 -0.0104970 -0.0174213 0.1701016 0.2427592 -0.0391019 -0.0174213 0.0173975 0.2256763 -0.0640292 -0.1984201 0.1891000 -0.0538062 -0.0139638 0.0400761 0.1871383 -0.0037284 0.0204117 0.0068844 -0.0122912 -0.0891468 -0.0432575 0.3205672 -0.0310778 -0.0210660 0.0289764 -0.0060600 -0.0144715 -0.4806375 -0.0037284 0.1057213 0.0243974 0.0239500 -0.0432575 -0.0043704 0.1057213 0.3181309 -0.0391019 0.5053642 -0.0222948 -0.0538062 -0.0120097 0.0160830 0.1411116 -0.1292290 0.9664302 -0.0096890 -0.0120097 0.2005067 -0.0031753 -0.0073120 -0.0371676 0.1057213 0.0386883 -0.0891468 -0.0560801 -0.0836750 1.0226815 -0.0669788 -0.0213138 -0.0092255 -0.0432575 -0.0053903 -0.0054993 0.0168354 0.0881547 -0.0108622 -0.0051802 -0.0712738 0.1057213 0.2731864 0.2889283 -0.0223522 -0.0083542 0.0276358 -0.2256420 0.5399767 -0.0195340 -0.2963949 -0.3301388 -0.3476735 0.1378367 0.0304688 0.1882808 0.0020930 0.1403635 -0.0455320 -0.0188406 -0.0120565 0.6479227 0.1676924 0.0348342 0.1563723 0.0962829 -0.0133315 -0.0020021 -0.0529530 0.0829187 -0.4586344 -0.3159802 0.0120143 -0.1236461 -0.0100813 0.0829187 -0.0164033 -0.0028626 -0.0036386 -0.0185714 -0.1146245 -0.0022744 0.0039345 -0.0928037 -0.0928037 -0.0028626 0.2792725 -0.0432575 -0.0051802 -0.0051591 0.0253260 0.1075068 -0.0539276 -0.1361720 -0.0432575 -0.0032079 -0.0062082 0.0442846 -0.1452536 -0.1405672 0.0175895 -0.0271939 -0.1234318 0.0048844 -0.0220847 -0.2714599 0.0365135 -0.2452753 -0.0459172 -0.0251296 -0.0516679 0.2462355 -0.0952997 0.0586615 0.0386883 -0.0827307 -0.0039627 -0.0211669 -0.0353326 -0.0133315 -0.0132270 -0.1619542 -0.0573742 -0.0044029 -0.1470604 -0.0081014 -0.0432575 -0.0882374 -0.0784508 -0.1167609 -0.0413733 -0.4680398 -0.0452610 -0.2465993 0.0386883 -0.1191924 -0.0091317 -0.0351170 0.0203922 -0.0051773 0.0430820 -0.0124637 -0.1499652 -0.0666394 -0.1321478 0.2290192 -0.0281882 -0.0210660 -0.6262559 -0.5487092 -0.0049921 -0.2160028 -0.0576865 0.0295171 -0.0930525 -0.0306932 -0.0222018 0.0028918 0.0107206 -0.0051802 -0.0055712 -0.0036218 0.1057213 -0.3191976 0.0974268 -0.1113387 -0.0027118 -0.0025081 0.2758148 0.0748676 -0.0210245 0.1026038 0.0089002 0.2005067 -0.2779637 0.0365135 0.0375176 0.3138699 -0.0326619 0.1316786 -0.0018216 -0.0695930 0.3259785 -0.1286954 0.1845817 0.0046392 0.0365426 0.5399767 0.1083980 -0.0031753 0.0238238 -0.0432575 0.1309480 -0.0133315 0.0068844 -0.0127875 -0.1038802 -0.0245409 -0.0851393 0.0324894 -0.0127145 0.0066628 -0.2786114 -0.0017078 -0.0036384 -0.0783617 -0.0022744 -0.0085332 -0.6622627 -0.0091749 -0.0027118 -0.0037563 -0.0035042 -0.2894149 0.0082322 -0.2647472 0.1411116 -0.1666049 0.1057213 -0.0627902 -0.0212908 0.0607705 0.1388383 -0.0037284 0.1657274 0.4917006 0.2963194 0.2827117 -0.0486824 -0.0214600 0.1613400 -0.3064334 -0.5237960 -0.2315359 0.1030849 0.0814780 -0.0122912 -0.0229342 -0.1456913 0.4239452 0.1463577 0.0386883 0.2758148 -0.0101275 -0.1321135 0.2724761 -0.0712738 -0.1146245 -0.1841490 -0.4889117 -0.0276491 -0.1367961 -0.1185140 -0.0334220 -0.0083976 -0.3050279 -0.0462714 -0.2806786 -0.0256808 -0.1886920 0.2005067 -0.0717689 -0.3934526 -0.0371644 -0.0413733 0.1614329 -0.1526226 -0.0050667 0.0814780 0.1603935 0.1747124 -0.0023712 -0.6896518 -0.0043662 -0.0076955 -0.0048830 0.0430820 0.0430820 -0.7733268 -0.0076460 -0.0041367 -0.5075913 -0.0144370 0.3430249 0.0238238 0.3005532 -0.0222948 0.1799587 0.0803381 -0.0210245 -0.0043662 -0.0050715 -0.0051423 0.3259785 -0.1470604 0.0124752 -0.0732203 -0.0732203 -0.1543233 0.1032575 -0.0511735 0.0368553 -0.0359542 -0.0144370 -0.0042366 0.1057213 0.1292740 0.0120230 0.0803381 0.3481672 -0.0137663 -0.1840490 -0.0438325 -0.0006857 0.0386883 -0.0084638 0.0464203 0.1411116 -0.0968347 -0.0611391 -0.2932589 -0.0485213 -0.0448275 0.0123681 -0.3414327 -0.0155995 -0.0075012 -0.0452201 -0.0094131 -0.0073633 -0.5781253 0.0482263 -0.0827307 -0.3560388 -0.0209025 -0.0036384 -0.0470180 -0.0037284 0.0123681 -0.0028626 -0.0038342 -0.0180855 -0.0081866 0.0611788 -0.0148444 -0.0039385 -0.0634677 -0.0437015 -0.0050715 -0.1144482 -0.0018525 -0.1708740 -0.0506661 -0.0396348 0.0411075 -0.0073633 0.0312583 -0.0036384 0.7684674 -0.0305393 0.0313332 0.2967493 0.1630247 -0.0049921 0.0835772 -0.0042366 0.1613400 -0.0037284 -0.0355255 -0.0041605 -0.2332404 -0.5591533 0.0331759 -0.0172996 -0.0841937 -0.0164679 -0.2110663 0.0837011 -0.1666049 -0.0096890 0.0365135 -0.0192125 -0.1478745 0.0401465 0.2574850 -0.0127145 -0.3834219 0.0004478 -0.0351190 -0.0212883 -0.1724916 -0.2022719 -0.4064571 0.0594234 -0.0194962 0.0386883 -0.0422261 -0.4454799 -0.0222548 -0.4248277 -0.0031753 0.2719273 0.0431832 -0.0525139 -0.0382846 -0.0051789 -0.0104970 0.0289764 0.0181369 -0.0061514 0.1649957 0.7323552 -0.0259968 0.0515758 0.3768325 0.4305058 -0.2786114 0.0044434 0.3080568 -0.0035898 0.0589857 0.0829729 0.1953074 -0.0036384 -0.1465731 0.2846432 -0.1013369 -0.1347967 0.0336508 -0.1363914 -0.0432575 -0.0802568 0.1277050 -0.0183236 -0.0017078 0.2926040 -0.0872042 -0.0306932 -0.0468960 -0.0084638 -0.0370555 -0.0507758 -0.1345852 -0.0257957 -0.0360934 0.1057213 0.4827692 0.0775534 0.1456855 -0.0133315 -0.0032079 -0.0808459 0.1057213 -0.0049921 -0.0018216 -0.0999066 0.0365135 -0.1914272 0.1057213 -0.0161773 -0.0169920 -0.0063862 -0.2179176 -0.0076736 -0.5641389 -0.0037284 0.1057213 -0.5737161 -0.0028626 -0.1024656 -0.0199572 -0.0084638 -0.0210660 -0.0122912 -0.0013876 -0.2602351 -0.0133315 -0.0369245 -0.0080988 0.0272891 -0.1071071 -0.0215882 -0.0517545 -0.0028626 -0.0122912 0.1563723 -0.0560801 -0.0203443 0.2028666 -0.0122912 0.1057213 -0.1479289 0.0175895 -0.0035898 0.1316786 -0.0022744 0.0331759 0.0365135 -0.1012568 0.0386883 -0.0277381 0.3986394 -0.4302491 -0.0130031 -0.1146245 -0.0115821 -0.0084638 -0.0171488 -0.0244596 -0.0438325 -0.0334220 0.0977215 0.0066628 -0.3903670 0.3233859 0.1007292 0.0028918 -0.1839897 -0.0144370 -0.2229268 0.0066628 -0.0094131 -0.0046245 0.1057213 0.0044434 -0.0383121 -0.0037284 -0.0122912 -0.2459225 -0.0841937 -0.0196781 -0.0220905 -0.0062082 -0.2199608 -0.0049393 -0.2633036 -0.0036013 0.0253260 0.1057213 -0.0767786 -0.0024200 -0.0165459 -0.0315076 -0.3146402 -0.0767786 0.2057327 -0.0032981 -0.0076955 -0.2894149 -0.0203443 -0.0025173 -0.0277381 -0.4024398 -0.0203443 0.0233619 -0.0066529 -0.0554200 -0.0438325 -0.0283204 -0.1405672 -0.0223522 -0.0048035 -0.0076736 -0.0049921 0.0046392 -0.0024253 0.3060955 -0.4158057 -0.0199572 -0.0041367 -0.0743555 0.1207071 -0.0253231 -0.5227984 -0.0025248 -0.0259968 -0.2595984 0.1010534 0.8968474 0.0324894 0.3233859 0.3216457 -0.0528420 -0.0007314 -0.0379515 -0.2837197 -0.2206780 -0.0013876 -0.0210660 -0.1126374 0.1305136 -0.0693991 0.0962829 0.0574512 -0.0649811 -0.2269506 -0.1007356 0.0365135 0.0066628 0.0046100 0.0365135 -0.0422261 -0.0422261 0.2967493 -0.0878743 -0.0794571 0.2719273 -0.0051802 0.0968508 -0.0020021 0.0876717 -0.0210660 0.0095181 0.1309480 -0.0036384 -0.0078476 -0.0176015 0.1057213 0.3080568 -0.0462714 -0.0033770 0.0125085 0.0852610 -0.0577495 -0.2549902 0.1483598 -0.0014756 -0.3247014 -0.1503202 -0.0036386 -0.0128249 0.2258758 0.2865230 0.0093279 -0.0028353 -0.0213554 -0.0161773 -0.1914272 -0.2911480 -0.1728377 0.0669074 0.0829187 -0.0031753 0.1578802 -0.2347150 -0.0081832 0.0044434 -0.1490132 -0.0036386 -0.0066872 0.0224277 0.0386883 0.3029321 0.0039177 -0.0071586 -0.6855605 -0.0018115 -0.0032079 0.3940989 0.0386883 0.0032460 0.0375871 0.0025132 -0.2136812 -0.0143469 0.0046392 0.1882808 0.1953074 -0.0022744 0.0044434 -0.0032079 -0.3834219 -0.0391019 -0.2663811 -0.0639950 0.1490484 0.4783922 -0.0075287 0.0431832 -0.0024253 0.1057213 -0.1723609 -0.0794147 -0.0373684 -0.1728377 0.1048084 0.0051300 0.2488625 0.0204117 -0.0986030 0.1351671 0.0799106 -0.0031753 0.2456984 0.4206354 -0.0019154 -0.0127555 -0.0031289 -0.0391019 -0.0075012 0.0019082 -0.5013486 0.0093279 -0.0023501 -0.0037284 0.0272962 -0.4680439 -0.0037284 -0.1906803 -0.2443498 -0.0280150 0.1131400 -0.0820078 -0.0196735 -0.0988673 -0.0049921 -0.0055712 0.0066628 -0.3903670 0.4362030 -0.4412228 -0.1794887 -0.0122912 -0.1806081 0.0431832 -0.2633036 0.0935404 -0.0054993 -0.0036218 0.1953074 -0.1311748 -0.0085332 -0.1113387 0.0114694 0.0028918 0.0260737 0.0829187 0.1441054 -0.0076899 0.0935915 -0.0739508 0.0365135 -0.0060600 -0.0432575 -0.1007356 0.0179838 -0.0210378 -0.1123267 -0.0674239 -0.0516679 -0.1086284 0.3204526 -0.1128810 -0.0037284 0.0388533 -0.0763814 -0.0469447 -0.0114590 -0.0070153 -0.0648984 -0.0125512 0.1335649 -0.0507758 -0.0049921 -0.0164679 0.1008915 0.1758933 -0.0592630 0.0911025 0.1291314 -0.0090015 -0.0115656 -0.3331188 -0.0049921 0.1614329 -0.0073004 0.0674333 -0.0836750 -0.0133315 0.0811420 -0.0469447 -0.1819759 0.1871356 -0.0199572 0.0626807 -0.0265123 -0.0069128 -0.0036384 0.2005067 -0.0382846 0.1342776 -0.0078476 -0.3864999 0.0204117 0.1701016 0.0411075 -0.0823519 -0.0049830 -0.0051802 -0.0049830 -0.0102179 -0.0280538 0.0688243 0.0690029 0.0324894 0.0324894 -0.1436221 -0.1694368 0.2346782 0.0358257 0.0311713 -0.0102179 -0.0151539 -0.0036384 0.0428300 -0.0483858 -0.1163887 -0.0028626 0.4015343 -0.0455320 -0.0023501 0.0035058 0.4767010 -0.0127875 0.0048844 0.1142190 -0.0514877 -0.0120119 -0.0514261 -0.2151457 0.0365135 -0.0161740 -0.0035382 0.0048844 -0.0089320 0.2404090 -0.0459172 -0.0379515 -0.1507104 -0.0036384 -0.0103561 -0.0956538 -0.0144495 0.3159647 0.0413846 0.0386883 0.0386883 0.0622057 0.0324894 -0.0883067 0.0028918 0.0624798 -0.0222929 -0.0199572 -0.0386087 -0.0083735 -0.0044527 -0.0031753 -0.0459172 -0.1324654 -0.0112683 -0.0486415 -0.1601692 0.2384270 -0.0230816 0.2938745 0.0689783 -0.0023501 0.0028918 0.0451344 0.1015808 -0.0051802 0.0028918 0.0614658 0.0935786 -0.0210660 -0.0474608 0.2130399 -0.0036384 -0.0066939 0.0386883 0.1725116 -0.0432575 -0.2701524 -0.2381462 -0.1367651 0.0203186 -0.0202476 0.1464367 -0.0469859 -0.0210660 -0.0037284 -0.0372877 -0.0022744 -0.0104970 -0.0032384 0.0289764 0.0365135 -0.0122912 0.2920465 0.0431832 -0.0024589 -0.1312831 -0.0117779 -0.0037284 0.0386883 -0.0459172 -0.1757565 -0.0733462 -0.1358766 0.0020930 -0.0037284 -0.0291934 -0.0080429 -0.0956538 -0.3301893 -0.1358766 0.0028918 -0.0100954 0.2305415 -0.0021422 -0.3426003 -0.0019154 0.0110392 -0.2266314 0.0289764 -0.0036384 0.0386883 0.0989778 0.0296268 -0.0102179 -0.0036384 -0.0020090 -0.0828564 -0.0022744 0.1178809 0.1556719 1.0483424 0.1610881 -0.0049921 0.0622691 -0.0516679 -0.0234344 -0.1205868 0.0473994 -0.2442751 -0.0459172 -0.0345948 0.3877765 -0.0445418 0.3340785 -0.0023501 -0.0381890 -0.0067859 -0.0031753 -0.0143469 -0.1149675 0.2202689 0.2782134 0.0028583 0.0282879 0.0945419 0.1016245 -0.0102179 0.0431832 -0.0031753 -0.0036384 -0.0131077 -0.0452123 -0.2502785 0.0586956 -0.0145657 -0.1578107 -0.5039310 -0.0108947 0.0039177 0.0031590 0.0096734 -0.0028626 -0.2474036 -0.0019704 -0.0179580 -0.0021682 -0.0262462 0.0020930 -0.0474608 0.0154475 -0.0024589 0.0386883 0.3896267 0.0654899 -0.0102179 -0.0018561 0.2364718 -0.0028626 -0.0085077 0.0772395 0.0996585 -0.0581529 -0.2299016 0.0208959 0.0395448 0.0431832 0.0386883 -0.0104970 -0.0188748 -0.0036384 -0.0168003 0.2379683 0.0282094 -0.0109573 -0.0044527 -0.1808257 -0.0122912 0.0708621 0.2664604 -0.0060600 -0.2701524 0.0922955 -0.0019154 -0.1092475 -0.0171506 -0.0592334 -0.0028626 0.4278345 -0.1273925 -0.0693991 -0.0028626 -0.2411818 -0.0485725 -0.1914272 0.0020930 -0.0037284 -0.2878530 0.0324894 -0.0036384 -0.1643264 -0.0076159 -0.0051802 -0.0152717 -0.0036384 -0.1959784 -0.0011561 -0.1461361 -0.0032484 -0.1149675 0.0048844 -0.9799352 -0.0131477 -0.0060600 -0.0338579 -0.2706384 0.1263484 -0.0022744 0.0028918 -0.0028626 -0.0036384 -0.0022744 0.3289890 0.0328750 -0.0000743 -0.0432575 0.0899840 -0.0278797 0.7666000 0.0772194 -0.6189977 0.0096195 -0.0165067 -0.0037563 -0.0028626 -0.3258414 -0.1393553 -0.0479345 0.0073317 -0.0406962 0.0027680 -0.0051802 -0.1149675 -0.0037284 0.0028918 -0.0096583 0.9102557 -0.0018561 -0.1058718 0.1610881 0.3611031 -0.0886127 0.0696264 -0.0011316 -0.0164679 -0.2284818 -0.0054823 0.0666816 -0.1146275 0.0324894 0.0021837 -0.0152717 -0.4739527 -0.1578107 -0.0210660 0.1887078 -0.2283736 -0.0051802 0.0324894 0.0027680 0.0431832 -0.0381188 -0.2511313 -0.0036384 -0.1345569 0.0010357 0.0431832 -0.0023369 0.0324894 0.0324894 -0.0117682 -0.0459172 -0.0035382 0.0289764 0.2288666 -0.0199572 0.0431832 -0.0022744 -0.0037284 0.3672246 0.0324894 -0.0102179 -0.1126433 -0.0023501 0.0324894 -0.1606733 -0.0420284 -0.3576977 -0.0051802 -0.1723793 -0.0507758 -0.0621682 -0.1058299 -0.0042920 0.5081596 0.0110392 -0.1636570 0.3989245 -0.5641850 -0.1878184 -0.1440831 0.2952016 -0.5446221 0.7527310 0.2666978 0.0077012 0.0077012 0.4484944 0.0077012 0.0077012 0.0452401 0.4407932 0.2666978 0.0452401 0.2666978 0.0077012 0.0077012 0.0077012 0.0077012 0.0077012 0.0077012 0.0077012
0.1783141 -0.1091434 -0.1532852 -0.1532852 -0.3343862 0.1129054 -0.1559329 -0.6063503 -0.1559329 -0.1532852 -0.1559329 -0.3343862 0.5288562 0.0287079 -0.0140310 -0.0300147 -0.1323412 -0.0405702 -0.0131445 -0.0051454 0.0118772 -0.2547484 0.0544420 -0.0059729 -0.0106178 0.1329885 0.0384347 0.0482277 -0.1714696 -0.0048797 0.1833434 0.1289792 0.1880552 -0.0049435 -0.0190489 -0.0262980 0.0313478 -0.0220293 -0.0314728 0.1090274 0.0359032 0.1481326 0.1757588 0.0047254 0.3788313 -0.0698666 0.0115950 0.0163790 0.0207399 -0.0071599 -0.1632834 -0.0885039 -0.0102368 -0.0358616 -0.0662569 -0.0136948 -0.0220286 -0.6691994 -0.2944720 -0.0415286 0.1156607 0.1159284 -0.2918717 -0.0221979 0.0028430 0.0185312 -0.2798468 -0.0184804 0.4186707 -0.2965374 -0.0661152 -0.0374804 -0.0379207 0.0150083 0.0074963 -0.0078149 -0.0370430 0.6627077 0.0095289 -0.0261262 -0.0261262 -0.0067262 -0.3850479 -0.2043334 -0.0138023 -0.0273796 0.4742270 -0.0797248 -0.0917861 0.0021696 -0.0420592 0.0028430 -0.0198204 0.0195398 0.0185312 0.5264840 -0.0019987 0.0132494 -0.0005549 -0.4103014 -0.0412215 -0.1119909 -0.0777832 -0.2547387 -1.8112051 0.8917938 -0.0896141 -0.4230014 -0.1255169 -0.0116240 -0.0048797 0.2281484 -0.0388773 -0.0013632 -0.0141888 -0.0132954 -0.0785542 0.1019308 -0.0380894 -0.0370430 -0.0069850 0.2296333 -0.0370430 -0.0412215 0.0047254 -0.0592409 -0.1184177 -0.0069850 0.2073797 0.7569555 0.0065335 0.0020858 -0.0078149 -0.0025441 -0.2186070 0.2409400 0.2937944 -0.0370430 0.0020858 -0.2961043 -0.0098717 -0.7164823 -0.3842370 -0.1010641 -0.0050280 0.0522942 -0.0985367 -0.1137994 0.3001783 -0.0874191 -0.0814874 -0.0175433 -0.0220286 -0.0417219 0.1573399 -0.1543564 0.1711017 0.0042357 0.0040930 -0.0440280 -0.0052010 0.0333537 -0.2619827 0.1189014 -0.2965374 -0.0449731 0.1914362 -0.0160655 -0.2546929 0.3967732 0.0355752 0.0261108 0.2579533 -0.0069679 0.4132042 -0.3845024 0.0218288 -0.0785542 0.1029596 0.0028430 -0.0441268 -0.0036557 -0.0603053 0.5317170 0.0257537 -0.0079479 0.0218288 -0.1670117 -0.0441268 0.0728592 0.0218288 0.0101110 -0.0121401 -0.3548557 0.1630212 -0.1825137 -0.0649731 -0.0247453 -0.4534982 0.1381719 0.0046904 -0.0069850 -0.0033713 -0.0004897 0.1329721 0.0482277 -0.0750207 -0.0541930 0.0257537 -0.0173739 -0.1183713 0.0172873 0.7467635 0.0046904 -0.0370430 -0.0017905 -0.0041545 0.0482277 -0.0052085 -0.0370430 -0.3095739 0.0728592 -0.0841601 -0.0665708 -0.0649731 0.0163790 -0.0607708 -0.1273132 -0.1147861 -0.9193931 -0.0253639 0.0163790 -0.1775097 -0.0036557 0.0494717 -0.0386285 -0.0370430 -0.0193307 0.1329721 -0.0274250 -0.0616305 -0.6953767 -0.0131616 0.0415721 0.1240899 0.0482277 -0.0024971 0.0340696 -0.0947390 -0.0489491 -0.0643076 0.0369384 0.1935979 -0.0370430 -0.1476928 -0.2290631 -0.0171544 0.0130026 -0.0187598 0.3378355 -0.1455080 -0.2113349 0.3710866 0.8038500 0.6660021 -0.1291971 -0.0256903 -0.1113820 -0.0005549 -0.2680787 0.0439694 -0.1895296 0.0308212 -0.5151072 -0.0012895 -0.1424402 -0.1505514 -0.0716474 -0.0053546 0.0028430 0.1203002 -0.0628560 -0.3155268 -0.0370485 -0.0094446 0.3242190 -0.0039074 -0.0628560 0.1660106 -0.0059263 0.0118993 0.0220934 -0.0848678 -0.0042582 -0.0019987 0.0501904 0.0501904 -0.0059263 -0.0378921 0.0482277 0.0369384 0.0074963 -0.0045899 -0.0988827 -0.0476481 0.2233995 0.0482277 -0.0062809 0.0428625 -0.0417219 0.1189014 -0.1319101 -0.0918542 -0.0707078 0.2170820 -0.0036321 0.0339785 0.7439028 -0.0325452 0.2593418 0.0486449 -0.2561434 -0.0455820 -0.1370520 -0.1524855 -0.0318920 -0.0193307 0.0860207 -0.0235064 -0.2326371 -0.0112300 -0.0053546 -0.0167083 -0.1505730 0.0302319 0.0056881 0.4456302 -0.0012733 0.0482277 -0.0407852 -0.1421297 -0.3539375 0.0504430 -0.0855525 -0.1087191 -0.1322111 -0.0193307 0.4004983 0.0271917 -0.3503389 -0.0146382 -0.0008128 -0.0168344 0.0293378 -0.2961789 0.2058077 -0.1298580 -0.2242431 -0.1491386 0.0257537 -0.3267788 0.6695786 -0.0050280 0.2228410 0.0620303 -0.0096560 -0.1295028 -0.0048797 -0.0571775 -0.0012368 -0.0029096 0.0369384 0.0090851 -0.0311730 -0.0370430 -0.7386802 -0.0766905 -0.0478749 -0.0067262 0.0191004 -0.0825697 -0.0489695 0.0421449 -0.1421989 0.0223468 -0.1775097 0.2863691 -0.0325452 -0.3675496 -0.0855254 -0.2776986 -0.1291261 0.0179171 0.0467117 -0.1937588 -0.1280089 -0.1803239 -0.0020593 -0.0397083 -0.1455080 -0.0550164 -0.0036557 -0.0193871 0.0482277 -0.0516969 -0.0053546 -0.0033713 0.0201884 0.1629462 0.1081279 -0.0345924 -0.0273796 -0.0729089 -0.0052010 0.3887771 -0.0008735 0.0047254 -0.0041843 -0.0042582 0.0450139 -0.2867099 -0.0073404 -0.0067262 -0.0647256 -0.0550262 0.5295805 -0.0051454 0.2101780 -0.1273132 0.4296508 -0.0370430 -0.0881202 0.0294417 -0.0454653 0.1750413 0.0046904 -0.1280143 -0.2787184 -0.1791034 -0.2294154 0.0785572 -0.0063912 -0.1453802 0.1555312 1.0160967 0.3127379 -0.0864129 -0.0275091 -0.0004897 -0.0449086 0.2028837 -0.2714675 0.0127664 -0.0193307 -0.0825697 0.0168834 -0.0778422 -0.4690425 0.1935979 -0.0848678 0.2754489 -0.2603319 -0.0354650 -0.1230551 0.0092550 0.0105896 0.1402192 0.3241536 -0.0183500 -0.0098717 0.1589945 1.0969567 -0.1775097 0.1255524 0.7954350 -0.1357632 0.0504430 0.2841120 0.3415929 -0.0049171 -0.0275091 -0.0262980 -0.1657053 -0.0069679 0.5556221 0.0282618 0.0108254 -0.0045293 -0.0168344 -0.0168344 0.4939916 -0.0314728 0.0531274 0.7569555 -0.1912480 -0.0709482 -0.0193871 -0.1270993 -0.0665708 -0.0377034 -0.0388773 0.0421449 0.0282618 0.0071324 -0.0133524 -0.1937588 0.4456302 -0.0091914 -0.2461463 -0.2461463 0.2544146 -0.0797248 -0.1791545 0.1528609 -0.0065948 -0.1912480 -0.0220293 -0.0370430 -0.3264066 -0.1130733 -0.0388773 -0.0575957 -0.0051916 -0.0494801 0.0753110 0.0020858 -0.0193307 -0.0172865 -0.0528643 -0.1273132 0.2135549 0.0830937 0.2010431 -0.2361844 0.0533253 -0.0077545 0.8768781 0.0848270 -0.0157099 0.0927124 -0.0115905 -0.0054989 -0.6195462 -0.0315090 0.0860207 -0.1035217 -0.1167502 0.0047254 0.0345054 0.0046904 -0.0077545 -0.0059263 -0.0131489 -0.0321297 0.0102525 -0.0995642 -0.1113777 -0.0586301 -0.3258723 0.1289792 0.0071324 0.3945346 0.0047269 -0.0631607 0.0550125 0.0457198 -0.0364145 -0.0054989 -0.0279788 0.0047254 -0.6168276 0.1656620 0.0043932 -0.2708745 0.1985431 -0.0050280 -0.0762957 -0.0220293 -0.1453802 0.0046904 -0.0259785 -0.0070611 0.3318329 1.0372335 -0.0261785 -0.1971743 -0.0484708 -0.0013632 0.1277609 -0.0577523 0.4296508 -0.0253639 -0.0325452 -0.0132395 0.2865496 -0.0363118 -0.0389340 -0.0729089 -0.4819648 0.1795415 -0.0063965 -0.0316072 0.2131557 0.2188862 0.6857725 -0.1047379 0.2165132 -0.0193307 0.1092119 0.5420207 0.0367519 1.1029280 -0.0036557 -0.3582565 -0.0412215 -0.0079195 -0.0217319 0.0166584 -0.0079479 -0.0173739 -0.2967136 -0.5113908 -0.1917849 -0.0401000 0.0271470 -0.0386196 -0.3474277 -0.2472766 0.3887771 -0.0031949 -0.3058781 0.0684480 0.0855824 -0.0610526 -0.1749702 0.0047254 0.1626650 -0.0528613 0.0952043 0.2130920 -0.0384715 0.1137508 0.0482277 0.5267233 -0.1174911 -0.0103825 -0.0008735 -0.0325375 -0.0474504 -0.0048797 0.0529530 -0.0172865 0.1793482 -0.0195929 0.4364388 0.0410147 0.0459145 -0.0370430 -0.4715833 -0.1209279 -0.0966597 -0.0053546 -0.0062809 0.0862204 -0.0370430 -0.0050280 0.0179171 0.1769531 -0.0325452 0.3195542 -0.0370430 -0.0018703 -0.1133470 -0.0126153 0.2422273 -0.1294310 0.1464630 0.0046904 -0.0370430 -0.4983903 -0.0059263 -0.0839301 -0.0221979 -0.0172865 0.0257537 -0.0004897 0.0174014 0.3660451 -0.0053546 0.2074678 -0.0005181 -0.0030273 -0.2472093 0.1192005 -0.0701911 -0.0059263 -0.0004897 -0.1505514 -0.0274250 -0.0108706 -0.3890453 -0.0004897 -0.0370430 0.1576276 -0.0918542 0.0684480 -0.1291261 -0.0042582 -0.0261785 -0.0325452 -0.0229600 -0.0193307 -0.0252074 -0.1475288 -0.4650184 -0.0079214 -0.0848678 -0.0555234 -0.0172865 -0.1979743 -0.0033018 0.0753110 0.0105896 -0.0924760 -0.0052010 0.5059794 -0.3156110 -0.0420710 -0.0012368 0.1450338 -0.1912480 -0.1547756 -0.0052010 -0.0115905 -0.0071012 -0.0370430 -0.0031949 -0.0886289 0.0046904 -0.0004897 0.5264840 -0.0484708 -0.0621938 0.1275299 0.0428625 0.2189865 -0.0116697 0.2664712 -0.0081208 -0.0045899 -0.0370430 -0.0543055 0.0042973 0.0274953 0.0359032 0.3160920 -0.0543055 0.0817110 -0.0040094 0.0108254 0.5295805 -0.0108706 -0.0130428 -0.0252074 0.8755557 -0.0108706 -0.0458628 0.0446690 0.0379322 0.0753110 -0.0825217 -0.1319101 -0.0171544 -0.1184177 -0.1294310 -0.0050280 -0.0020593 -0.0706667 -0.0131445 0.2293738 -0.0221979 0.0531274 -0.0739449 -0.1150985 0.0267774 0.5317170 0.0044666 0.0271470 0.3867336 -0.0090009 -0.5038797 -0.0273796 -0.3156110 -0.0497061 0.0890506 0.0010959 0.0496311 0.5363776 0.0510724 0.0174014 0.0257537 -0.3635687 -0.1074144 0.4284858 -0.0716474 -0.0421206 0.0672167 -0.0223101 0.2656146 -0.0325452 -0.0052010 -0.0076296 -0.0325452 0.1092119 0.1092119 -0.2708745 0.0891471 0.1077197 -0.3582565 0.0369384 -0.0593367 0.0028430 -0.3155677 0.0257537 -0.0050439 -0.0516969 0.0047254 -0.0212413 -0.0068817 -0.0370430 -0.3058781 -0.0183500 -0.0296467 -0.0187371 -0.0777305 -0.5203683 -0.5802956 0.0099234 0.0473419 0.8444519 -0.0434781 0.0118993 -0.0148144 -0.0705444 -0.4735345 -0.0068270 -0.0059729 -0.0175433 -0.0018703 0.3195542 -0.2011394 -0.0694406 0.0813561 -0.0628560 -0.0036557 -0.1322359 0.2202795 0.0340539 -0.0031949 0.1588104 0.0118993 -0.0814874 -0.1456851 -0.0193307 -0.2598908 -0.0025441 0.0082722 1.6044531 0.0164889 -0.0062809 -0.2746092 -0.0193307 0.0013541 -0.0063883 -0.0106000 0.3380888 0.0323004 -0.0020593 -0.1113820 -0.1749702 -0.0042582 -0.0031949 -0.0062809 -0.4819648 0.0728592 0.2718508 -0.0247210 -0.3357559 -0.1862747 -0.0170283 -0.0412215 -0.0706667 -0.0370430 -0.0561453 0.0457911 -0.0700914 -0.0694406 -0.4306621 -0.0854729 -0.0714791 -0.0069850 -0.1136106 -0.1328781 -0.0093062 -0.0036557 0.0638175 -0.0552877 -0.0068526 -0.0063374 -0.1274991 0.0728592 -0.0157099 -0.0006560 0.8390605 -0.0068270 -0.0028429 0.0046904 -0.0103563 0.5792272 0.0046904 -0.3292353 0.3284416 -0.1315670 -0.1668641 0.2247966 0.1466869 0.0630193 -0.0050280 0.0090851 -0.0052010 0.5059794 -0.0501903 -0.6086799 0.0010391 -0.0004897 -0.1186715 -0.0412215 0.2664712 -0.0136948 0.0340696 -0.0311730 -0.1749702 -0.0230600 0.0450139 -0.0478749 -0.0098047 -0.0012368 -0.0391365 -0.0628560 -0.1149282 -0.0159628 -0.1157333 0.0433480 -0.0325452 -0.1183713 0.0482277 0.2656146 -0.1664273 0.0252828 -0.0818755 0.2184384 -0.0455820 0.1156607 -0.4484910 0.1801118 0.0046904 -0.1341340 0.1375787 -0.0248252 -0.0068632 -0.0294099 0.1010648 0.0740113 -0.1196084 -0.0195929 -0.0050280 -0.0013632 -0.0797054 -0.1377128 0.0176221 -0.0824454 -0.0803282 -0.0550104 -0.1716974 0.4193068 -0.0050280 0.2841120 -0.0239480 -0.0506663 -0.0616305 -0.0053546 -0.3216777 -0.0248252 0.3518462 0.6197675 -0.0221979 -0.1724722 -0.0157629 0.0099755 0.0047254 -0.1775097 -0.0217319 0.0005538 -0.0212413 0.7079704 -0.0069850 -0.1670117 -0.0364145 -0.0322323 0.0179073 0.0369384 0.0179073 -0.0154637 -0.0947402 -0.0807190 -0.0599248 -0.0273796 -0.0273796 0.2442414 0.4456500 -0.4639567 -0.0252569 -0.0395299 -0.0154637 -0.0064160 0.0047254 0.0433786 0.0370207 0.0065930 -0.0059263 -0.0829766 0.0439694 -0.0028429 -0.0015931 -0.3027173 0.0201884 -0.0036321 -0.0395439 0.2194996 0.0016916 -0.0577507 0.3891938 -0.0325452 -0.0066836 0.1192017 -0.0036321 0.0189509 -0.0469697 0.0486449 0.0496311 -0.1079186 0.0047254 -0.0519426 0.1018644 0.0248584 -0.0200640 -0.1463604 -0.0193307 -0.0193307 -0.0474620 -0.0273796 -0.0385610 -0.0012368 -0.0072611 0.1324034 -0.0221979 -0.1511955 -0.0030338 -0.0059776 -0.0036557 0.0486449 -0.2311682 -0.0535012 -0.3039947 -0.0411022 -0.2153854 -0.7650368 -0.6365620 -0.0248905 -0.0028429 -0.0012368 -0.0410510 -0.1659205 0.0369384 -0.0012368 -0.0447535 -0.0416039 0.0257537 -0.0679194 0.1092289 0.0047254 -0.0311139 -0.0193307 -0.1275809 0.0482277 -0.1132079 0.1501849 -0.3593591 -0.1206066 0.0221906 -0.1021385 0.0529180 0.0257537 0.0046904 0.0059500 -0.0042582 -0.0079479 -0.0419691 -0.0173739 -0.0325452 -0.0004897 -0.4478337 -0.0412215 -0.0118324 0.3250466 -0.0069817 0.0046904 -0.0193307 0.0486449 0.1464311 0.0498857 -0.0973947 -0.0005549 0.0046904 0.2868245 0.0310121 0.1018644 -0.1260241 -0.0973947 -0.0012368 0.0214705 -0.4108293 -0.0447868 -0.1228064 -0.0068526 -0.0547957 0.7316589 -0.0173739 0.0047254 -0.0193307 -0.2391910 -0.0333059 -0.0154637 0.0047254 0.0182996 0.1038645 -0.0042582 -0.2673924 -1.2483714 -1.1588790 -0.1259550 -0.0050280 -0.0050815 -0.0455820 -0.1469380 0.0054385 0.0039946 0.1166970 0.0486449 0.1066641 0.1573094 0.1069846 -0.0804433 -0.0028429 0.1151819 -0.0019538 -0.0036557 0.0323004 -0.0212745 -0.1345577 -0.2326176 -0.0018321 -0.4111992 0.0359089 -0.3536637 -0.0154637 -0.0412215 -0.0036557 0.0047254 0.3073997 -0.3288683 0.5220591 0.0217560 -0.0047479 -0.0496428 0.6644359 -0.0085262 -0.0025441 -0.0014136 -0.0059364 -0.0059263 0.8231506 0.0032404 -0.0131801 0.0077565 0.0626921 -0.0005549 -0.0679194 -0.0067915 -0.0118324 -0.0193307 -0.0791425 -0.0499191 -0.0154637 0.0142466 0.1304587 -0.0059263 0.0199780 -0.0067644 -0.0654502 -0.0210335 0.3624839 -0.1535801 -0.0364961 -0.0412215 -0.0193307 -0.0079479 0.0531848 0.0047254 -0.1698255 -0.5448859 -0.0145427 0.0340046 -0.0059776 0.1511565 -0.0004897 -0.0289758 -0.2411266 -0.1183713 -0.1132079 -0.8532362 -0.0068526 -0.0431950 -0.1636883 -0.0612748 -0.0059263 -1.1614511 -0.1659103 0.4284858 -0.0059263 0.1756283 0.1643269 0.3195542 -0.0005549 0.0046904 0.1732998 -0.0273796 0.0047254 -0.0646016 -0.0708195 0.0369384 0.0185312 0.0047254 0.3797735 0.0114085 0.2650395 -0.0140888 -0.0212745 -0.0036321 2.0033041 -0.0259788 -0.1183713 0.0429552 0.5558902 -0.0912143 -0.0042582 -0.0012368 -0.0059263 0.0047254 -0.0042582 -0.0957307 -0.0278198 0.0070062 0.0482277 -0.0737212 0.0268234 -1.7185854 -0.4015253 1.0906401 0.0061962 -0.0090103 -0.0647256 -0.0059263 1.0820338 0.2308436 0.2641847 -0.0059831 -0.1798985 -0.0016075 0.0369384 -0.0212745 0.0046904 -0.0012368 -0.1545726 -1.3765035 0.0142466 0.0864006 -0.1259550 -0.0478873 0.0559540 -0.0497062 0.1474794 -0.0013632 0.4314106 -0.0105391 -0.0099920 -0.0908642 -0.0273796 -0.0052610 0.0185312 1.6581230 -0.0496428 0.0257537 -0.1432124 0.2488209 0.0369384 -0.0273796 -0.0016075 -0.0412215 0.2176314 0.0021663 0.0047254 -0.0241314 0.0130098 -0.0412215 0.1215770 -0.0273796 -0.0273796 -0.0143212 0.0486449 0.1192017 -0.0173739 -0.1500091 -0.0221979 -0.0412215 -0.0042582 0.0046904 0.5671534 -0.0273796 -0.0154637 0.0640105 -0.0028429 -0.0273796 -0.0555690 0.0143518 0.4766138 0.0369384 0.1765500 -0.0195929 -0.1709267 0.1175889 0.0647489 -0.1918303 -0.0547957 0.2154162 0.2564361 0.0267156 0.4681154 0.2116626 0.2279630 -0.3620749 -0.3958052 -0.1542005 -0.0150545 -0.0150545 -0.1284666 -0.0150545 -0.0150545 -0.1281925 -0.1134121 -0.1542005 -0.1281925 -0.1542005 -0.0150545 -0.0150545 -0.0150545 -0.0150545 -0.0150545 -0.0150545 -0.0150545
