0.0000000 -0.0096992 0.0002942 0.6024884 0.6024884 0.0317290 0.1552835 0.1312492 0.0628466 0.1312492 0.6024884 0.1312492 0.0317290 -0.0901492 0.0408322 0.0292092 0.0075190 -0.0000964 -0.0896652 -0.0002214 0.0000650 -0.3654464 -0.0148352 0.0003601 0.0018358 -0.0055088 -0.0019872 -0.0001324 -0.0592110 0.0098352 -0.0031334 -0.0003068 -0.0442033 0.0015137 0.0128514 -0.1187265 -0.0426760 0.0003878 0.0006291 -0.0088936 -0.0001941 -0.0055390 -0.0317192 0.0000333 -0.0060222 -0.1232099 -0.0691282 -0.0001108 -0.0003382 0.0101425 0.7125184 0.0029485 -0.0000380 -0.0081643 -0.0016966 -0.0525576 0.0063500 -0.2894063 -0.0653892 -0.0048611 -0.0000390 -0.0187787 -0.1299766 0.0007972 -0.0000463 0.0000058 -0.0149816 0.0298540 -0.0092813 0.0770987 0.0028183 0.0009707 0.0005707 -0.3256952 -0.0000655 -0.0000233 -0.0902519 -0.0609108 0.0000098 -0.0003205 -0.0003205 0.0011264 0.0761415 -0.0020812 0.0006378 0.0000006 -0.0320534 -0.0033628 -0.1549099 0.0021648 -0.0031905 -0.0000463 -0.0056304 0.0103126 0.0000058 -0.0808208 -0.0014005 -0.0001482 0.0000376 0.0408058 -0.0001588 -0.0000128 -0.0001040 -0.1559933 0.2211264 -0.1188422 -0.0007449 0.1451891 -0.3481718 -0.0025095 0.0098352 0.2502767 -0.0016972 0.0037318 -0.0064779 -0.0011581 0.0006503 -0.0188580 0.0067988 -0.0902519 -0.0005066 -0.1145260 -0.0902519 -0.0001588 0.0000333 -0.0894547 0.0104542 -0.0005066 -0.0076636 -0.0641803 -0.0000518 -0.0000241 -0.0000233 0.0000459 0.1319386 -0.0262176 -0.0052403 -0.0902519 -0.0000241 -0.0223047 0.0403843 0.4056073 -0.2739963 -0.0070801 0.0078035 -0.0178873 -0.0012105 0.0783458 -0.0091371 -0.3471720 0.0062908 0.0014321 0.0063500 -0.0000650 -0.0041087 -0.0868545 -0.0000999 0.0000612 -0.0140175 -0.0907585 -0.0000589 0.0119125 0.0810300 0.0363214 0.0770987 0.1503419 -0.0000106 0.0009749 0.5507856 -0.5355970 0.0031407 -0.0003154 -0.0849642 0.0001585 -0.0118283 -0.0690736 0.0000742 0.0006503 -0.0074977 -0.0000463 -0.0446584 -0.0000953 0.0531873 -0.0021231 0.0000396 0.0005803 0.0000742 -0.0000652 -0.0446584 -0.0086584 0.0000742 -0.0056762 -0.0335495 -0.0955218 0.3306748 -0.0026755 0.0005500 -0.0002706 0.0551965 -0.2719340 -0.0000384 -0.0005066 -0.0003202 0.0000279 -0.0058269 -0.0001324 -0.0353690 0.0078598 0.0000396 0.0000022 -0.0000798 0.0000104 -0.0185306 -0.0000384 -0.0902519 -0.0126260 -0.0247548 -0.0001324 0.0012875 -0.0902519 -0.0082581 -0.0086584 -0.3635371 0.1701275 0.0005500 -0.0001108 0.0127864 -0.0002845 0.0399299 0.3436799 0.0028689 -0.0001108 -0.0071643 -0.0000953 -0.0171587 0.0006183 -0.0902519 -0.0056583 -0.0058269 0.0033546 0.0215294 -0.1093961 0.0243159 -0.0012825 -0.0019520 -0.0001324 0.0004345 -0.0012393 0.0047701 -0.0075177 -0.0000236 -0.0005911 -0.0064210 -0.0902519 -0.1019563 -0.0056110 0.0006871 -0.0003999 -0.0003276 -0.0052534 -0.2295872 0.3041880 -0.0209973 -0.2245408 -0.1006970 -0.0001229 -0.0000663 -0.0031506 0.0000376 0.1945927 -0.0003073 0.0379511 -0.0005533 -0.0539882 -0.0764418 0.0278430 -0.0001383 -0.0269022 0.0000049 -0.0000463 -0.0081270 -0.0062716 1.1463994 0.4896854 -0.0003158 -0.0210476 0.0001736 -0.0062716 -0.0019511 -0.0002530 -0.0002231 -0.0002061 0.0433863 -0.0001749 -0.0014005 -0.0079710 -0.0079710 -0.0002530 -0.1161350 -0.0001324 -0.0005911 -0.0000655 -0.0012879 0.0072556 0.0053637 0.3303565 -0.0001324 0.0002666 -0.0036626 -0.0000650 0.0363214 0.0269842 0.0086554 0.3273291 -0.0924776 -0.0001165 -0.0004682 -0.1111164 -0.0003383 0.0017834 0.0000825 0.0586052 0.0032600 -0.0604976 0.0568762 -0.0109353 -0.0056583 -0.0001487 0.0000516 0.0585536 0.0012581 0.0000049 0.0037947 0.4465654 0.0009866 0.0000159 -0.1419011 0.0019578 -0.0001324 0.3815852 0.0136787 0.1513321 -0.0003725 0.6817965 0.0195690 0.0415057 -0.0056583 -0.0353063 -0.0001037 0.2402049 -0.0022994 -0.0001416 -0.0030510 -0.0002811 0.0841096 -0.0105911 -0.1057719 -0.0003190 0.0280244 0.0000396 0.1230002 -0.0171438 0.0078035 -0.0015145 -0.0007504 -0.0035526 0.0087721 0.0098352 0.0030321 0.0000526 -0.0001279 -0.0005911 -0.0007079 0.0023055 -0.0902519 0.4064045 0.0782738 0.0084594 0.0011264 0.0000790 -0.0362117 -0.0109234 -0.0009735 0.0008783 -0.0014058 -0.0071643 -0.0005085 -0.0003383 0.1478885 -0.1146831 0.0542555 -0.0000155 -0.0017684 -0.1598761 -0.3021452 -0.2552578 -0.0048504 0.0000386 -0.0005388 -0.2295872 -0.0044947 -0.0000953 -0.0002456 -0.0001324 -0.0293168 0.0000049 -0.0003202 -0.0002261 -0.0061302 -0.0208438 0.0026879 0.0000006 0.0024234 -0.0000589 -0.0436952 0.0000998 0.0000333 0.0086616 -0.0001749 -0.0080511 -0.0112804 0.0011540 0.0011264 -0.0000083 0.0101253 0.1383913 -0.0002214 0.2540198 -0.0002845 -0.1135321 -0.0902519 0.0050016 -0.0000179 -0.0011137 -0.0782057 -0.0000384 -0.0065974 -0.0492369 -0.0751067 -0.0910360 -0.0100456 0.0115353 0.0297324 0.1526265 -0.1080260 0.0016537 -0.0001808 -0.0102639 0.0000279 0.0022718 -0.0135905 -0.0491615 -0.0226332 -0.0056583 -0.0362117 -0.0001027 0.0673644 0.0644010 -0.0064210 0.0433863 -0.0857671 0.3434453 0.0000524 0.0174905 0.0652129 0.0113853 -0.0424489 -0.0031811 0.0014958 0.0403843 -0.0174588 -0.2798691 -0.0071643 -0.0078221 -0.1341598 0.0127658 -0.0003725 -0.2228810 -0.0210498 0.0002521 -0.0102639 -0.1187265 -0.0012404 0.0001585 0.6158327 -0.0034380 0.0000193 0.0000045 -0.0030510 -0.0030510 0.6373621 0.0006291 -0.0170634 -0.0641803 0.0475984 -0.1475309 -0.0002456 -0.0309554 0.1701275 -0.0974027 -0.0016972 -0.0009735 -0.0034380 0.0000030 0.0001991 -0.3021452 -0.1419011 0.0000042 0.0474527 0.0474527 -0.0583851 -0.0033628 0.0148144 -0.0182231 0.0024592 0.0475984 0.0003878 -0.0902519 0.0055344 -0.0476382 -0.0016972 -0.1477300 0.0033310 0.0110656 -0.0165351 -0.0000241 -0.0056583 0.0017677 0.1869815 -0.0002845 -0.0034831 -0.0151744 -0.1073274 0.0375649 -0.0003231 -0.0004422 -0.2871549 -0.0111930 0.0016502 -0.0166513 0.0052110 0.0014445 0.2758466 -0.0000323 -0.0001487 0.1050774 0.0799704 0.0000333 0.0683767 -0.0000384 -0.0004422 -0.0002530 0.0005215 0.0002899 -0.0002894 -0.0836026 -0.1356259 0.0071788 -0.0762525 -0.0003068 0.0000030 -0.0352980 0.0000443 0.0204472 -0.0000268 -0.0000529 -0.0001120 0.0014445 -0.0000477 0.0000333 -0.0549269 -0.0032345 -0.0009295 -0.0034564 -0.2813092 0.0078035 -0.0219263 0.0003878 0.0297324 -0.0000384 0.0034257 0.0015315 0.0830420 -0.1043293 -0.0000170 0.0473454 0.0050746 0.0037318 -0.2456718 0.0746427 -0.1135321 0.0028689 -0.0003383 0.0013262 -0.0296448 0.0000436 -0.1124490 0.0024234 0.4063574 -0.0537788 0.0036910 0.0038547 0.0110452 -0.0034541 -0.0696858 0.0775592 -0.0041208 -0.0056583 -0.0200221 -0.0054872 -0.0008678 -0.1235879 -0.0000953 0.1063043 -0.0001588 0.0283192 0.0226437 -0.0003046 0.0005803 0.0000022 0.0585089 -0.5027270 0.4348055 -0.4702594 -0.0000330 -0.0026058 0.0013873 -0.1398023 -0.0436952 -0.0005831 -0.0027493 -0.0110822 -0.2450005 -0.0057233 -0.0034454 0.0000333 -0.0039092 -0.1153400 -0.0160221 -0.0978132 -0.0005914 0.0347254 -0.0001324 -0.3767376 -0.0272129 0.0078084 0.0000998 -0.1161400 0.0038036 0.0098352 -0.0000992 0.0017677 -0.0163478 0.0030788 -0.1418968 -0.0005955 -0.0066614 -0.0902519 -0.0039896 0.0045202 -0.0348351 0.0000049 0.0002666 -0.0006548 -0.0902519 0.0078035 -0.0017684 -0.0141668 -0.0003383 -0.0063419 -0.0902519 0.0035540 0.0021810 0.0003012 -0.0021201 0.2095379 0.1503313 -0.0000384 -0.0902519 0.1874932 -0.0002530 0.0323444 0.0007972 0.0017677 0.0000396 0.0000279 -0.0001162 -0.0010819 0.0000049 -0.0267655 0.0012491 -0.0125734 0.1371758 -0.3924335 0.0126124 -0.0002530 0.0000279 -0.0001383 0.0033546 0.0032892 0.0470215 0.0000279 -0.0902519 -0.0011833 0.0086554 -0.0110822 -0.0000155 -0.0001749 -0.0000170 -0.0003383 0.0319760 -0.0056583 0.0025243 -0.1255685 0.1321734 0.0005821 0.0433863 -0.0603979 0.0017677 0.0487249 0.0075153 -0.0165351 0.0113853 -0.0033643 -0.0000589 -0.0330873 -0.0020813 -0.0824485 0.0000526 0.0453124 0.0475984 0.0789122 -0.0000589 0.0052110 0.0008790 -0.0902519 -0.0005831 0.0092284 -0.0000384 0.0000279 -0.0808208 0.0050746 0.0051084 -0.0119662 -0.0036626 0.1851381 0.0026401 -0.0009186 0.0009735 -0.0012879 -0.0902519 0.0215161 -0.0000890 -0.0000805 -0.0001941 -0.0000868 0.0215161 -0.0568830 0.0001372 0.0000193 0.1383913 0.0032892 -0.1564620 0.0025243 -0.1335161 0.0032892 0.0008456 -0.0019538 -0.0373649 -0.0165351 0.0022534 0.0269842 0.0006871 0.0104542 0.2095379 0.0078035 0.0000386 0.0083700 -0.0896652 0.0162986 0.0007972 -0.0170634 -0.0126077 -0.0002167 -0.0002392 -0.0021231 -0.0001021 -0.0000330 -0.0112946 -0.0006286 -0.1023198 0.0000006 -0.0020813 -0.1490282 -0.0086472 -0.0000008 0.0000185 -0.0672748 0.1308174 -0.0001162 0.0000396 0.5143278 -0.0019796 -0.0029543 -0.0269022 -0.0006428 0.0000231 0.0432942 -0.0516993 -0.0003383 -0.0000589 -0.0004950 -0.0003383 -0.0200221 -0.0200221 -0.0034564 -0.0000284 0.0343326 0.1063043 -0.0005911 0.0059458 -0.0000463 0.0499198 0.0000396 -0.0002486 -0.0293168 0.0000333 0.0002686 0.0478804 -0.0902519 -0.0027493 0.0014958 0.0264482 0.0037340 -0.0003910 -0.1338921 -0.3163951 -0.0225869 -0.0001310 -0.1187112 0.0023866 -0.0002231 0.0003245 -0.3204530 0.4963485 -0.0006996 0.0003601 0.0014321 0.0035540 -0.0063419 -0.0184680 0.0179911 -0.1193187 -0.0062716 -0.0000953 -0.0063694 0.0622902 -0.0002777 -0.0005831 -0.0005049 -0.0002231 0.0062908 0.0223476 -0.0056583 -0.0027009 0.0000459 0.0000014 -0.2189801 -0.0009743 0.0002666 -0.1024408 -0.0056583 -0.0002869 -0.0005624 0.0000420 -0.0113771 -0.0000656 0.0000386 -0.0031506 -0.0034454 -0.0001749 -0.0005831 0.0002666 0.4063574 -0.0086584 -0.0018433 0.0008203 0.0573245 -0.2399366 0.0096192 -0.0001588 0.0083700 -0.0902519 0.0423094 -0.0218877 0.0109901 0.0179911 0.1593449 -0.0118647 0.1095137 -0.0005066 0.0471187 -0.0002645 -0.0114235 -0.0000953 -0.1420070 -0.2425531 -0.0001417 0.0001334 -0.1683379 -0.0086584 0.0016502 -0.0002592 -0.1078694 -0.0006996 0.0010539 -0.0000384 -0.0008267 -0.0063880 -0.0000384 0.0506370 -0.0042085 0.4233167 0.0396486 -0.0178388 -0.0097128 0.1010151 0.0078035 -0.0007079 -0.0000589 -0.0330873 -0.9721038 0.4713337 0.0144632 0.0000279 0.0371620 -0.0001588 -0.0009186 -0.0525576 -0.0012393 0.0023055 -0.0034454 0.0680702 -0.0080511 0.0084594 -0.0067894 0.0000526 -0.0002808 -0.0062716 -0.0270224 0.0005526 -0.1987461 0.0097027 -0.0003383 -0.0000798 -0.0001324 -0.0516993 0.2097395 0.0000535 0.0373590 -0.0839934 0.0032600 -0.0000390 0.4173526 -0.0090111 -0.0000384 0.0102084 0.0179556 0.0052510 0.0037012 0.0014922 -0.0164955 -0.0017666 -0.0005875 0.0030788 0.0078035 0.0037318 -0.0030730 0.0040253 -0.0081485 -0.0002972 -0.0019089 0.0013513 0.0285679 -0.0910771 0.0078035 -0.2228810 0.2467686 -0.0011725 0.0215294 0.0000049 -0.1075793 0.0052510 -0.0845459 -0.3779407 0.0007972 0.1211588 0.0058557 -0.0001079 0.0000333 -0.0071643 0.0226437 -0.0921306 0.0002686 -0.0704830 -0.0005066 -0.0000652 -0.0001120 0.0079167 -0.0019375 -0.0005911 -0.0019375 0.0069249 -0.0043348 -0.0344224 -0.0003377 0.0000006 0.0000006 -0.1041995 -0.0986582 -0.0304289 -0.0059114 -0.0000517 0.0069249 -0.0002251 0.0000333 0.1623198 -0.0739182 0.2327821 -0.0002530 -0.3102812 -0.0003073 0.0010539 -0.0000824 -0.0084577 -0.0002261 -0.0001165 -0.0112628 -0.1403764 0.0001071 0.0007457 -0.0888894 -0.0003383 0.0042681 -0.0848982 -0.0001165 -0.0001336 -0.0436045 0.0000825 0.0000185 0.1249286 0.0000333 0.0026313 -0.0000715 -0.0002449 -0.3996361 -0.0690106 -0.0056583 -0.0056583 -0.0000284 0.0000006 0.0730408 0.0000526 -0.0155543 -0.0070378 0.0007972 -0.0015863 0.0000738 0.0000466 -0.0000953 0.0000825 -0.2720544 0.0026941 0.2043598 0.0137255 -0.0001455 0.0592081 -0.1753186 -0.0017001 0.0010539 0.0000526 0.0000176 0.0199893 -0.0005911 0.0000526 0.0000028 -0.0213260 0.0000396 0.0007392 -0.6918006 0.0000333 0.0163315 -0.0056583 -0.0065958 -0.0001324 0.0663202 -0.1336210 0.0388588 -0.0689710 -0.0001640 -0.0010325 -0.0001708 0.0000396 -0.0000384 0.0046034 -0.0001749 0.0005803 -0.0000943 0.0000022 -0.0003383 0.0000279 0.2378228 -0.0001588 -0.0001442 -0.0120033 0.0086066 -0.0000384 -0.0056583 0.0000825 0.1832677 0.0097397 0.0644587 0.0000376 -0.0000384 -0.1515761 -0.0008442 -0.0000715 0.5314745 0.0644587 0.0000526 -0.0001168 -0.0474923 -0.0509538 0.6265641 -0.0001417 -0.0056059 -0.2244492 0.0000022 0.0000333 -0.0056583 0.0618382 -0.0002524 0.0069249 0.0000333 -0.0002263 -0.0610599 -0.0001749 0.1336481 0.6751766 0.4351620 -0.0066360 0.0078035 -0.0062872 0.0032600 0.0432197 0.0012885 0.0180660 0.1981683 0.0000825 -0.0006143 -0.3658041 -0.0085706 0.2601370 0.0010539 -0.0213676 0.0008031 -0.0000953 -0.0000656 0.0018145 -0.0011206 -0.0256017 0.0000206 0.8360915 -0.0843260 0.0521449 0.0069249 -0.0001588 -0.0000953 0.0000333 -0.0917420 0.2400881 -0.1865179 -0.0425887 -0.0001470 0.0799541 -0.0197171 0.0002114 0.0000459 -0.0000572 -0.0003497 -0.0002530 -0.1852231 -0.0002236 0.0000811 -0.0001546 -0.0005515 0.0000376 0.0007392 -0.0002987 -0.0001442 -0.0056583 -0.5026469 -0.0003362 0.0069249 -0.0006739 -0.2090716 -0.0002530 -0.0022869 -0.0214260 -0.0157133 0.0667665 -0.0113869 0.2183310 -0.0001255 -0.0001588 -0.0056583 0.0005803 -0.0005055 0.0000333 0.3825114 -0.1050538 -0.0001216 -0.0056142 0.0000466 0.1104806 0.0000279 -0.0156333 -0.0016089 -0.0000798 0.0663202 0.1266155 -0.0001417 0.0336346 0.1167109 0.0069820 -0.0002530 0.1672524 0.0507123 -0.0029543 -0.0002530 -0.0048902 -0.0033942 -0.0063419 0.0000376 -0.0000384 0.0562940 0.0000006 0.0000333 0.1140187 0.1367483 -0.0005911 0.0000058 0.0000333 -0.0019414 -0.0033584 -0.0469604 -0.0000800 0.0018145 -0.0001165 -0.2568672 0.0008957 -0.0000798 -0.0007236 -0.0123816 -0.0008223 -0.0001749 0.0000526 -0.0002530 0.0000333 -0.0001749 -0.0516973 -0.0003051 -0.0002913 -0.0001324 -0.0050138 -0.0000224 -0.1939776 -0.1473193 -0.0414452 -0.0275591 -0.0000904 -0.0000083 -0.0002530 0.1893755 -0.0003783 -0.0512287 -0.0000284 0.0711238 0.0000028 -0.0005911 0.0018145 -0.0000384 0.0000526 0.0137354 0.1432759 -0.0006739 0.0068533 -0.0066360 -0.3099887 -0.0028411 -0.0013831 -0.0019569 0.0037318 -0.0038430 0.0000917 -0.0072595 0.0797953 0.0000006 0.0015206 0.0000058 -0.2461590 0.0799541 0.0000396 -0.0121928 0.0062045 -0.0005911 0.0000006 0.0000028 -0.0001588 -0.0025774 0.1913311 0.0000333 0.0681396 -0.0006213 -0.0001588 -0.1445134 0.0000006 0.0000006 -0.0012371 0.0000825 -0.0848982 0.0000022 -0.0106643 0.0007972 -0.0001588 -0.0001749 -0.0000384 -0.3015648 0.0000006 0.0069249 -0.0298736 0.0010539 0.0000006 0.0797011 0.0266854 0.0128029 -0.0005911 0.0043359 0.0030788 0.1695612 -0.0006637 -0.0041124 -0.1649522 -0.0056059 -0.0001946 -0.4243093 0.4565466 -0.3255969 -0.0264297 -0.3307764 0.6427968 -0.2472407 -0.0769992 0.0226494 0.0226494 -0.2532215 0.0226494 0.0226494 0.1056295 -0.2758710 -0.0769992 0.1056295 -0.0769992 0.0226494 0.0226494 0.0226494 0.0226494 0.0226494 0.0226494 0.0226494 0.1738018 -0.3360617 0.1545544 2.2993913 -1.1468411 -1.1602557 1.8495248 -0.6744210 -1.1828093 0.4021760 -0.0568908 -0.3529907 0.1042794 -0.2613461 0.1493612
0.0000000 0.0714562 -0.0219409 -0.4668504 -0.4668504 0.3338219 -0.1730956 0.0520960 0.4513663 0.0520960 -0.4668504 0.0520960 0.3338219 -0.0765670 -0.0381021 -0.0224540 0.0000080 0.0021149 0.0930349 0.0006738 0.0000688 0.4470772 -0.0022808 -0.0001162 -0.0017423 -0.0030011 -0.0001338 -0.0010825 0.1263219 -0.0098340 -0.0240838 -0.0000665 -0.0071149 -0.0003618 -0.0128268 0.1606713 -0.0871412 -0.0001314 -0.0004299 -0.0026136 -0.0004745 -0.0059217 -0.0004936 -0.0000723 -0.0986733 0.1991298 0.0908003 0.0000320 -0.0007024 -0.0101269 -0.5078911 0.0022325 0.0000712 0.0121764 0.0216395 0.0540613 -0.0062792 0.3477151 0.1143930 0.0052972 -0.0013752 -0.0547589 0.1361606 -0.0008626 -0.0000227 -0.0000517 -0.3160265 -0.0291573 -0.0642845 0.0352712 -0.0018121 -0.0009400 -0.0000401 0.3099118 0.0000373 0.0000662 0.1039909 -0.0822628 0.0000243 0.0023134 0.0023134 -0.0006761 -0.0055986 0.0109133 -0.0003340 0.0006746 -0.2290296 0.0053132 0.1553567 -0.0018356 0.0046119 -0.0000227 0.0061303 -0.0036239 -0.0000517 -0.0404824 0.0013823 0.0011404 -0.0000475 0.0551376 0.0015615 0.0029620 0.0008038 0.2342978 0.2966621 -0.0516081 0.0071280 0.0150019 0.1560792 0.0029286 -0.0098340 -0.5141725 0.0209649 -0.0022659 0.0109696 0.0045799 0.0000505 -0.0304142 -0.0035982 0.1039909 0.0007472 0.0083475 0.1039909 0.0015615 -0.0000723 0.1031282 -0.0000960 0.0007472 -0.1652286 -0.0661570 -0.0000396 0.0000090 0.0000662 -0.0000638 -0.1064634 -0.0050718 -0.0178303 0.1039909 0.0000090 0.0854512 -0.0382012 -0.0990421 0.3144977 0.0137038 -0.0029086 -0.0050067 0.0026882 -0.0648234 -0.0107530 0.1544145 -0.0000960 -0.0009372 -0.0062792 0.0015533 -0.0119764 0.1024103 -0.0033331 -0.0001018 0.0194890 0.1047381 0.0008381 -0.0100272 -0.0520425 -0.0518961 0.0352712 -0.1463825 -0.0002908 -0.0004898 0.6709372 -0.0231049 -0.0022809 -0.0009630 -0.0346656 -0.0001624 -0.0670853 0.1206434 0.0000162 0.0000505 -0.0075226 -0.0000227 0.0481446 0.0000736 0.0631819 -0.1425557 -0.0001244 -0.0006340 0.0000162 0.0137749 0.0481446 -0.0011952 0.0000162 0.0060459 0.0336702 0.1219574 0.0251835 0.0249652 -0.0005768 0.0073276 0.1228349 0.2417526 -0.0001175 0.0007472 0.0020533 -0.0000295 -0.0043571 -0.0010825 0.0395819 -0.0061844 -0.0001244 0.0000478 0.0000300 0.0000189 -0.1329343 -0.0001175 0.1039909 0.0133702 0.0253580 -0.0010825 -0.0001888 0.1039909 0.1318688 -0.0011952 0.3846781 -0.1193102 -0.0005768 0.0000320 -0.0112735 0.0029165 -0.0210271 0.1176054 -0.0010637 0.0000320 0.0175605 0.0000736 -0.0005765 -0.0005299 0.1039909 0.0061598 -0.0043571 -0.0028108 -0.0203288 0.2553209 -0.0239091 -0.0000022 -0.0001034 -0.0010825 -0.0002964 0.0000006 0.0036857 0.0102651 0.0000507 -0.0000150 -0.0071946 0.1039909 0.0776720 -0.1645286 -0.0004924 0.0001078 0.0013528 -0.0049678 0.2384465 -0.2123365 -0.0357895 -0.0147974 -0.0608228 0.0012831 0.0007547 0.0086835 -0.0000475 -0.1170099 -0.0010386 -0.0060832 -0.0015252 0.1400126 0.0394119 -0.0209210 0.0048195 0.0362209 -0.0001526 -0.0000227 -0.0025338 0.0271892 -1.0808399 -0.4847692 0.0032447 -0.0189427 -0.0001554 0.0271892 -0.0000531 0.0000282 0.0000180 0.0000554 -0.0356093 0.0000440 0.0013823 -0.0449009 -0.0449009 0.0000282 0.1194253 -0.0010825 -0.0000150 0.0000373 0.0018558 0.0048153 -0.0036091 0.0004138 -0.0010825 -0.0001734 -0.0000157 0.0015533 -0.0518961 -0.0215606 0.0106735 0.0276032 0.0626397 0.0010431 -0.0002653 -0.0463512 0.0045848 -0.0329148 -0.0000965 -0.0038078 -0.0018753 -0.0398507 -0.0125045 0.0179737 0.0061598 -0.0005423 0.0000215 -0.0038293 -0.0008506 -0.0001526 -0.0005762 -0.3947995 -0.0008757 0.0000045 0.2953432 -0.0019698 -0.0010825 0.0343868 -0.0030416 -0.0122211 -0.0016138 -0.9607297 -0.0053675 -0.0281744 0.0061598 -0.0418681 -0.0001619 -0.0032042 0.0056904 0.0000508 0.0054644 -0.0001815 -0.0384088 -0.0065851 -0.0320734 0.0144124 -0.0070943 -0.0001244 -0.2096402 -0.0682820 -0.0029086 -0.0418849 -0.0058944 -0.0250767 -0.0016485 -0.0098340 -0.0016653 0.0000544 0.0001356 -0.0000150 -0.0002432 -0.0003487 0.1039909 -0.0999047 -0.0575556 -0.0060039 -0.0006761 0.0000415 0.0596147 0.0185095 -0.0000788 0.0021395 -0.0179880 0.0175605 -0.0246048 0.0045848 0.1235120 0.1283256 -0.0092515 0.0039027 -0.0000341 -0.0244339 0.3262876 0.1384257 0.0368378 0.0000958 0.0046674 0.2384465 0.0079321 0.0000736 0.0009043 -0.0010825 0.0365144 -0.0001526 0.0020533 -0.0000788 -0.0065960 -0.0025262 -0.0023898 0.0006746 -0.0008744 0.0008381 -0.0738244 -0.0000622 -0.0000723 -0.0085852 0.0000440 -0.0014838 -0.3177289 -0.0005781 -0.0006761 -0.0000648 -0.0003063 0.2214848 0.0006738 -0.1109310 0.0029165 -0.0266323 0.1039909 -0.0119670 -0.0001138 0.0051072 -0.2300439 -0.0001175 0.0332324 0.0598536 0.0735296 0.1980935 -0.0253507 -0.0051745 -0.0049912 -0.1632178 -0.2454450 -0.1590089 0.0027647 0.0126832 -0.0000295 -0.0012903 -0.0081617 0.0821599 -0.0316614 0.0061598 0.0596147 -0.0000535 -0.0304431 0.0815497 -0.0071946 -0.0356093 0.0174471 -0.3181870 -0.0000741 -0.0102313 0.0118822 -0.0099746 -0.0012932 -0.0658964 -0.0012419 -0.0382012 0.0000718 -0.0129512 0.0175605 -0.0015429 -0.1073640 -0.0023995 -0.0016138 0.7694243 -0.0189905 -0.0000453 0.0126832 0.1606713 0.0081676 -0.0001624 -0.2555418 -0.0000009 -0.0000000 0.0000114 0.0054644 0.0054644 -0.2758706 -0.0004299 -0.0006501 -0.0661570 -0.0027410 0.1673535 0.0009043 0.0490547 -0.1193102 -0.1748064 0.0209649 -0.0000788 -0.0000009 0.0000389 -0.0000639 0.3262876 0.2953432 0.0004918 -0.0213252 -0.0213252 -0.0184530 0.0053132 -0.0052741 -0.0031838 -0.0023668 -0.0027410 -0.0001314 0.1039909 0.0910978 0.0679131 0.0209649 0.1674174 -0.0025173 -0.0081624 -0.0033579 0.0000090 0.0061598 -0.0011680 0.0030935 0.0029165 -0.0147962 -0.0630145 -0.0987277 -0.0071104 -0.0007492 0.0007413 0.4138454 -0.0096836 -0.0011469 -0.0033519 -0.0027121 -0.0014697 -0.1391901 0.0001227 -0.0005423 -0.0954170 -0.0459418 -0.0000723 -0.0126088 -0.0001175 0.0007413 0.0000282 0.0002041 -0.0001894 -0.0011199 0.1016382 -0.0029162 -0.0013282 0.1219716 -0.0000665 0.0000389 -0.0418416 0.0000279 -0.0125179 -0.0008687 -0.0001737 0.0037073 -0.0014697 0.0010708 -0.0000723 0.1560294 -0.0001056 0.0045698 0.0314321 0.2423945 -0.0029086 0.0404769 -0.0001314 -0.0049912 -0.0001175 -0.0028855 -0.0012500 -0.1446420 -0.2500295 0.0002337 -0.0027128 -0.0045908 -0.0022659 0.1344649 -0.0934307 -0.0266323 -0.0010637 0.0045848 -0.0006279 -0.1480961 0.0029339 0.1158605 -0.0008744 -0.3092412 0.1121295 -0.0037174 -0.0008494 -0.1049033 -0.0606256 -0.0682751 0.0031981 -0.0002858 0.0061598 -0.0296906 -0.0466746 -0.0014424 -0.0511655 0.0000736 0.0647503 0.0015615 -0.0280366 -0.0178768 0.0000342 -0.0006340 0.0000478 -0.0016929 0.6694930 -0.1849610 -0.0500291 -0.0006020 0.0060891 0.0179963 0.3666976 -0.0738244 0.0010635 0.0608196 -0.0097155 0.2205711 0.0077131 0.0965588 -0.0000723 -0.0207049 0.1191321 -0.0463847 0.0680356 0.0046130 -0.0399279 -0.0010825 0.0361666 0.0404536 -0.0030612 -0.0000622 0.1195779 -0.0021220 -0.0098340 -0.0011548 -0.0011680 -0.0013044 -0.0019002 0.2958350 -0.0057260 -0.0299097 0.1039909 0.0689872 0.0192036 0.0969005 -0.0001526 -0.0001734 -0.0088630 0.1039909 -0.0029086 -0.0000341 -0.0459678 0.0045848 -0.0013761 0.1039909 -0.0025175 -0.0018628 -0.0000608 -0.0418376 -0.1681618 -0.1466732 -0.0001175 0.1039909 -0.1239872 0.0000282 -0.0268406 -0.0008626 -0.0011680 -0.0001244 -0.0000295 0.0000060 -0.0261477 -0.0001526 -0.0007143 -0.0003064 0.0134247 -0.0212285 0.1596542 -0.0040814 0.0000282 -0.0000295 0.0048195 -0.0028108 -0.0031329 0.0168965 -0.0000295 0.1039909 -0.0094928 0.0106735 -0.0097155 0.0039027 0.0000440 0.0002337 0.0045848 -0.0308455 0.0061598 -0.0020987 0.1434986 -0.4621842 -0.0002121 -0.0356093 0.0748336 -0.0011680 -0.0034170 -0.0068850 -0.0033579 -0.0099746 0.0214745 0.0008381 -0.1068105 0.0525312 0.1010823 0.0000544 -0.0617170 -0.0027410 -0.0749562 0.0008381 -0.0027121 0.0000512 0.1039909 0.0010635 -0.0022621 -0.0001175 -0.0000295 -0.0404824 -0.0045908 -0.0008991 -0.0010707 -0.0000157 -0.0383462 -0.0010379 -0.0687240 -0.0000023 0.0018558 0.1039909 -0.0202292 -0.0001234 0.0000357 -0.0004745 -0.0308393 -0.0202292 0.0437935 -0.0000942 -0.0000000 0.2214848 -0.0031329 0.0937962 -0.0020987 -0.0309612 -0.0031329 0.0038106 -0.0000445 0.0269825 -0.0033579 -0.0009830 -0.0215606 -0.0004924 -0.0000960 -0.1681618 -0.0029086 0.0000958 -0.0012977 0.0930349 -0.0279885 -0.0008626 -0.0006501 0.0502450 0.0069352 -0.0030561 -0.1425557 -0.0000519 -0.0006020 -0.0474523 0.0016136 0.1505062 0.0006746 0.0525312 0.1512166 -0.0011888 0.0000125 -0.0000781 -0.1749462 -0.0498048 0.0000060 -0.0001244 -0.3174632 0.0688244 -0.0023841 0.0362209 0.0014611 -0.0048874 -0.0425016 -0.0269106 0.0045848 0.0008381 0.0020972 0.0045848 -0.0296906 -0.0296906 0.0314321 -0.0014133 -0.0435405 0.0647503 -0.0000150 0.0100369 -0.0000227 0.0015904 -0.0001244 0.0005693 0.0365144 -0.0000723 -0.0000908 -0.0005755 0.1039909 0.0608196 -0.0012419 -0.0013140 -0.0022181 0.0055200 0.2242135 0.1489555 -0.0316386 0.0000408 -0.0516489 -0.0022041 0.0000180 -0.0003956 0.0242039 -0.1729814 0.0021065 -0.0001162 -0.0009372 -0.0025175 -0.0013761 0.0465554 -0.0154663 0.1540297 0.0271892 0.0000736 0.0329633 -0.0924519 0.0017423 0.0010635 -0.0036341 0.0000180 -0.0000960 -0.0127213 0.0061598 0.0127844 -0.0000638 0.0000130 -0.1794804 0.0000025 -0.0001734 0.0822400 0.0061598 0.0019809 0.0013205 0.0008807 -0.0473558 -0.0000006 0.0000958 0.0086835 0.0965588 0.0000440 0.0010635 -0.0001734 -0.3092412 -0.0011952 -0.0414397 -0.0008917 0.0379299 0.0935779 -0.0014272 0.0015615 -0.0012977 0.1039909 -0.0488731 -0.0228042 0.0042317 -0.0154663 0.0181833 0.1082472 -0.0116681 0.0007472 -0.0372005 0.0067235 0.0124371 0.0000736 0.0977604 0.3019846 0.0000642 -0.0001502 0.2366953 -0.0011952 -0.0011469 0.0002718 -0.0824997 0.0021065 0.0000073 -0.0001175 0.0028005 -0.0481560 -0.0001175 -0.0077219 -0.0153095 -0.0036572 0.0586516 -0.0051869 -0.0008263 -0.0206079 -0.0029086 -0.0002432 0.0008381 -0.1068105 0.9930867 -0.3235923 -0.0150268 -0.0000295 -0.0328496 0.0015615 -0.0687240 0.0540613 0.0000006 -0.0003487 0.0965588 -0.0411419 -0.0014838 -0.0060039 0.0077560 0.0000544 0.0044866 0.0271892 0.0378783 -0.0001432 0.2789241 -0.0109165 0.0045848 0.0000300 -0.0010825 -0.0269106 -0.1675000 -0.0003618 -0.0127248 -0.0154274 -0.0018753 -0.0013752 -0.2339365 -0.0238265 -0.0001175 -0.0538278 -0.0473897 -0.0050961 -0.0017024 -0.0001410 -0.0034823 -0.0000538 0.0078483 -0.0019002 -0.0029086 -0.0022659 0.0049376 0.0877759 -0.0084932 0.0084165 0.0078930 -0.0002271 -0.0080334 0.0320830 -0.0029086 0.7694243 -0.2341192 0.0059453 -0.0203288 -0.0001526 0.1544991 -0.0050961 -0.0221933 -0.7593044 -0.0008626 -0.0663025 0.0011100 -0.0000268 -0.0000723 0.0175605 -0.0178768 0.1076443 -0.0000908 -0.0674125 0.0007472 0.0137749 0.0037073 -0.0069163 -0.0003651 -0.0000150 -0.0003651 -0.0010101 0.0060037 0.0494143 0.0052595 0.0006746 0.0006746 -0.0216372 -0.0121998 0.1848133 0.0061879 0.0013960 -0.0010101 -0.0000013 -0.0000723 -0.1064928 -0.0208131 -0.2127151 0.0000282 0.3371158 -0.0010386 0.0000073 0.0001305 0.0264595 -0.0000788 0.0010431 0.0126330 -0.0067759 -0.0001655 -0.0010126 0.0393970 0.0045848 -0.0039694 -0.0011389 0.0010431 0.0001458 0.0481519 -0.0000965 -0.0000781 -0.0221792 -0.0000723 -0.0012163 -0.0187358 -0.0000844 0.4203937 0.0791879 0.0061598 0.0061598 0.0003526 0.0006746 -0.0694845 0.0000544 0.0201101 -0.0155277 -0.0008626 0.0028730 -0.0000932 -0.0000740 0.0000736 -0.0000965 0.1042979 -0.0010433 -0.0044489 -0.0029845 0.0010837 -0.1983579 0.1148727 0.0197882 0.0000073 0.0000544 0.0002163 0.1488267 -0.0000150 0.0000544 0.0007224 0.0217964 -0.0001244 0.0003266 0.1829169 -0.0000723 -0.0004986 0.0061598 0.0336869 -0.0010825 -0.0628002 -0.1356908 0.0276497 0.0790636 -0.0006830 0.0321713 -0.0012001 -0.0001244 -0.0001175 -0.0046469 0.0000440 -0.0006340 -0.0000045 0.0000478 0.0045848 -0.0000295 -0.1855158 0.0015615 0.0000636 -0.0045490 -0.0037226 -0.0001175 0.0061598 -0.0000965 -0.0685626 -0.0033782 -0.0610871 -0.0000475 -0.0001175 0.1142840 0.0000131 -0.0187358 -0.4062866 -0.0610871 0.0000544 -0.0000583 0.1841632 0.0555358 -0.5608285 0.0000642 0.0060857 -0.1350923 0.0000478 -0.0000723 0.0061598 -0.0333243 0.0007028 -0.0010101 -0.0000723 0.0000619 -0.0033456 0.0000440 -0.0527076 0.3063515 0.2963451 0.0331367 -0.0029086 0.0067019 -0.0018753 -0.0940595 -0.0027383 -0.0891987 -0.0740578 -0.0000965 -0.0003266 0.3253694 -0.0007540 -0.5183436 0.0000073 -0.0439554 -0.0008140 0.0000736 -0.0000006 -0.0016285 0.0020566 0.0305843 -0.0000192 -0.3131695 0.0577253 -0.0593507 -0.0010101 0.0015615 0.0000736 -0.0000723 -0.1251716 -0.0032625 -0.0025660 0.0346635 0.0000145 -0.0768195 -0.2393703 -0.0000229 -0.0000638 0.0001055 0.0004644 0.0000282 -0.0685019 -0.0000369 0.0000816 0.0000682 -0.0001394 -0.0000475 0.0003266 0.0044605 0.0000636 0.0061598 -0.0197605 0.0046326 -0.0010101 0.0000002 0.1541515 0.0000282 -0.3115428 0.0261736 -0.0388657 -0.0503985 -0.0242402 -0.1323570 0.0014892 0.0015615 0.0061598 -0.0006340 0.0000851 -0.0000723 -0.2374237 -0.2671736 0.0030525 0.0059458 -0.0000740 -0.2193687 -0.0000295 -0.0391867 0.0048776 0.0000300 -0.0628002 0.1843093 0.0000642 -0.0314494 -0.0735174 -0.0047522 0.0000282 0.3348910 -0.0414331 -0.0023841 0.0000282 -0.0540071 -0.0004112 -0.0013761 -0.0000475 -0.0001175 -0.0076274 0.0006746 -0.0000723 -0.1126030 -0.0050376 -0.0000150 -0.0000517 -0.0000723 -0.0056394 -0.0000003 -0.0178094 0.0000543 -0.0016285 0.0010431 -0.2238914 -0.0008720 0.0000300 -0.0079222 -0.0233513 0.0066361 0.0000440 0.0000544 0.0000282 -0.0000723 0.0000440 0.0592791 0.0045125 0.0004790 -0.0010825 0.0252408 -0.0001231 1.0647012 -0.0926599 -0.1265637 0.0286784 -0.0000790 -0.0000648 0.0000282 -0.1165257 -0.0188023 -0.0339730 0.0002610 0.0688432 0.0000608 -0.0000150 -0.0016285 -0.0001175 0.0000544 -0.0001603 0.5405435 0.0000002 -0.0197459 0.0331367 0.3325948 0.0216433 0.0051819 -0.0000015 -0.0022659 -0.0038045 -0.0001294 0.0316144 -0.0752580 0.0006746 -0.0006703 -0.0000517 -0.4828311 -0.0768195 -0.0001244 0.0392079 -0.0215576 -0.0000150 0.0006746 0.0000608 0.0015615 -0.0001399 -0.0787442 -0.0000723 -0.0707257 0.0000546 0.0015615 -0.0000847 0.0006746 0.0006746 0.0010673 -0.0000965 -0.0011389 0.0000478 0.0693886 -0.0008626 0.0015615 0.0000440 -0.0001175 0.4140929 0.0006746 -0.0010101 -0.2016420 0.0000073 0.0006746 -0.0767914 -0.0308941 -0.2269329 -0.0000150 -0.0258884 -0.0019002 -0.2565155 -0.0020726 -0.0001687 0.1855018 0.0060857 -0.0110464 0.2775864 -0.6089622 -0.0550565 -0.2471989 0.1826387 -0.3348574 0.5128769 0.2115979 0.0720378 0.0720378 0.2953423 0.0720378 0.0720378 0.0779745 0.2233045 0.2115979 0.0779745 0.2115979 0.0720378 0.0720378 0.0720378 0.0720378 0.0720378 0.0720378 0.0720378 -0.0427432 0.3206360 -0.2815485 -1.0963054 2.4928856 -1.4002359 -0.7333907 1.3039639 -0.5742289 -0.2475480 0.0528657 0.1910266 -0.0406110 0.4177885 -0.3808332
0.0000000 -0.0617571 0.0216468 -0.1356379 -0.1356379 -0.3655509 0.0178121 -0.1833452 -0.5142128 -0.1833452 -0.1356379 -0.1833452 -0.3655509 0.1667163 -0.0027301 -0.0067552 -0.0075270 -0.0020185 -0.0033697 -0.0004524 -0.0001338 -0.0816308 0.0171159 -0.0002439 -0.0000936 0.0085099 0.0021210 0.0012150 -0.0671109 -0.0000012 0.0272172 0.0003732 0.0513182 -0.0011519 -0.0000246 -0.0419448 0.1298172 -0.0002564 -0.0001992 0.0115072 0.0006686 0.0114607 0.0322128 0.0000390 0.1046955 -0.0759199 -0.0216721 0.0000789 0.0010406 -0.0000156 -0.2046274 -0.0051810 -0.0000332 -0.0040121 -0.0199429 -0.0015037 -0.0000708 -0.0583089 -0.0490038 -0.0004361 0.0014142 0.0735376 -0.0061840 0.0000654 0.0000690 0.0000458 0.3310081 -0.0006968 0.0735658 -0.1123699 -0.0010062 -0.0000307 -0.0005306 0.0157834 0.0000283 -0.0000428 -0.0137389 0.1431736 -0.0000341 -0.0019929 -0.0019929 -0.0004504 -0.0705429 -0.0088321 -0.0003038 -0.0006753 0.2610830 -0.0019504 -0.0004468 -0.0003293 -0.0014214 0.0000690 -0.0004999 -0.0066887 0.0000458 0.1213032 0.0000182 -0.0009923 0.0000099 -0.0959434 -0.0014027 -0.0029492 -0.0006998 -0.0783045 -0.5177885 0.1704503 -0.0063830 -0.1601910 0.1920926 -0.0004191 -0.0000012 0.2638958 -0.0192676 -0.0014659 -0.0044917 -0.0034218 -0.0007008 0.0492723 -0.0032005 -0.0137389 -0.0002407 0.1061785 -0.0137389 -0.0014027 0.0000390 -0.0136735 -0.0103583 -0.0002407 0.1728923 0.1303373 0.0000914 0.0000151 -0.0000428 0.0000179 -0.0254752 0.0312894 0.0230706 -0.0137389 0.0000151 -0.0631465 -0.0021831 -0.3065652 -0.0405014 -0.0066238 -0.0048949 0.0228940 -0.0014778 -0.0135224 0.0198900 0.1927575 -0.0061948 -0.0004949 -0.0000708 -0.0014883 0.0160851 -0.0155558 0.0034329 0.0000406 -0.0054715 -0.0139796 -0.0007792 -0.0018853 -0.0289875 0.0155747 -0.1123699 -0.0039594 0.0003014 -0.0004851 -1.2217228 0.5587019 -0.0008598 0.0012784 0.1196299 0.0000039 0.0789136 -0.0515697 -0.0000904 -0.0007008 0.0150203 0.0000690 -0.0034862 0.0000217 -0.1163693 0.1446789 0.0000848 0.0000536 -0.0000904 -0.0137096 -0.0034862 0.0098535 -0.0000904 -0.0003697 -0.0001206 -0.0264355 -0.3558582 -0.0222897 0.0000268 -0.0070570 -0.1780314 0.0301814 0.0001559 -0.0002407 -0.0017331 0.0000015 0.0101840 0.0012150 -0.0042129 -0.0016754 0.0000848 -0.0000500 0.0000498 -0.0000293 0.1514649 0.0001559 -0.0137389 -0.0007442 -0.0006033 0.0012150 -0.0010987 -0.0137389 -0.1236107 0.0098535 -0.0211409 -0.0508173 0.0000268 0.0000789 -0.0015129 -0.0026320 -0.0189028 -0.4612853 -0.0018053 0.0000789 -0.0103962 0.0000217 0.0177352 -0.0000884 -0.0137389 -0.0005015 0.0101840 -0.0005438 -0.0012006 -0.1459248 -0.0004068 0.0012847 0.0020554 0.0012150 -0.0001380 0.0012386 -0.0084558 -0.0027474 -0.0000271 0.0006061 0.0136156 -0.0137389 0.0242843 0.1701396 -0.0001946 0.0002921 -0.0010252 0.0102211 -0.0088593 -0.0918515 0.0567868 0.2393382 0.1615198 -0.0011602 -0.0006883 -0.0055329 0.0000099 -0.0775828 0.0013459 -0.0318679 0.0020784 -0.0860244 0.0370299 -0.0069220 -0.0046812 -0.0093188 0.0001477 0.0000690 0.0106608 -0.0209176 -0.0655596 -0.0049161 -0.0029288 0.0399903 -0.0000182 -0.0209176 0.0020042 0.0002249 0.0002050 0.0001507 -0.0077770 0.0001309 0.0000182 0.0528719 0.0528719 0.0002249 -0.0032903 0.0012150 0.0006061 0.0000283 -0.0005680 -0.0120709 -0.0017545 -0.3307702 0.0012150 -0.0000933 0.0036783 -0.0014883 0.0155747 -0.0054236 -0.0193289 -0.3549323 0.0298379 -0.0009266 0.0007335 0.1574677 -0.0042465 0.0311314 0.0000139 -0.0547975 -0.0013847 0.1003483 -0.0443717 -0.0070384 -0.0005015 0.0006909 -0.0000731 -0.0547244 -0.0004074 0.0001477 -0.0032185 -0.0517659 -0.0001109 -0.0000204 -0.1534421 0.0000121 0.0012150 -0.4159719 -0.0106371 -0.1391110 0.0019863 0.2789332 -0.0142016 -0.0133312 -0.0005015 0.0771743 0.0002656 -0.2370007 -0.0033910 0.0000907 -0.0024134 0.0004626 -0.0457008 0.0171762 0.1378453 -0.0140934 -0.0209301 0.0000848 0.0866401 0.0854259 -0.0048949 0.0433994 0.0066448 0.0286293 -0.0071236 -0.0000012 -0.0013668 -0.0001070 -0.0000076 0.0006061 0.0009510 -0.0019568 -0.0137389 -0.3064998 -0.0207181 -0.0024555 -0.0004504 -0.0001205 -0.0234030 -0.0075860 0.0010523 -0.0030178 0.0193938 -0.0103962 0.0251133 -0.0042465 -0.2714005 -0.0136425 -0.0450041 -0.0038871 0.0018025 0.1843100 -0.0241424 0.1168320 -0.0319874 -0.0001344 -0.0041286 -0.0088593 -0.0034374 0.0000217 -0.0006587 0.0012150 -0.0071977 0.0001477 -0.0017331 0.0003049 0.0127262 0.0233700 -0.0002981 -0.0006753 -0.0015490 -0.0007792 0.1175196 -0.0000376 0.0000390 -0.0000764 0.0001309 0.0095349 0.3290093 -0.0005759 -0.0004504 0.0000732 -0.0098190 -0.3598761 -0.0004524 -0.1430888 -0.0026320 0.1401644 -0.0137389 0.0069654 0.0001318 -0.0039936 0.3082495 0.0001559 -0.0266350 -0.0106166 0.0015771 -0.1070575 0.0353963 -0.0063609 -0.0247412 0.0105913 0.3534710 0.1573552 -0.0025838 -0.0024193 0.0000015 -0.0009814 0.0217523 -0.0329984 0.0542946 -0.0005015 -0.0234030 0.0001562 -0.0369213 -0.1459506 0.0136156 -0.0077770 0.0683200 -0.0252583 0.0000217 -0.0072591 -0.0770951 -0.0014106 0.0437421 0.0690775 -0.0002539 -0.0021831 0.0173870 0.2928203 -0.0103962 0.0093650 0.2415238 -0.0103662 0.0019863 -0.5465433 0.0400403 -0.0002068 -0.0024193 -0.0419448 -0.0069273 0.0000039 -0.3602909 0.0034389 -0.0000193 -0.0000159 -0.0024134 -0.0024134 -0.3614915 -0.0001992 0.0177135 0.1303373 -0.0448574 -0.0198226 -0.0006587 -0.0180993 -0.0508173 0.2722091 -0.0192676 0.0010523 0.0034389 -0.0000418 -0.0001352 -0.0241424 -0.1534421 -0.0004960 -0.0261274 -0.0261274 0.0768381 -0.0019504 -0.0095403 0.0214068 -0.0000924 -0.0448574 -0.0002564 -0.0137389 -0.0966322 -0.0202748 -0.0192676 -0.0196874 -0.0008137 -0.0029032 0.0198930 0.0000151 -0.0005015 -0.0005997 -0.1900750 -0.0026320 0.0182793 0.0781889 0.2060552 -0.0304545 0.0010723 -0.0002991 -0.1266904 0.0208766 -0.0005034 0.0200032 -0.0024989 0.0000253 -0.1366566 -0.0000904 0.0006909 -0.0096604 -0.0340286 0.0000390 -0.0557679 0.0001559 -0.0002991 0.0002249 -0.0007256 -0.0001005 0.0014094 -0.0180356 0.1385421 -0.0058506 -0.0457191 0.0003732 -0.0000418 0.0771395 -0.0000722 -0.0079294 0.0008955 0.0002266 -0.0035952 0.0000253 -0.0010230 0.0000390 -0.1011025 0.0033401 -0.0036403 -0.0279757 0.0389147 -0.0048949 -0.0185505 -0.0002564 -0.0247412 0.0001559 -0.0005402 -0.0002815 0.0616000 0.3543588 -0.0002167 -0.0446326 -0.0004839 -0.0014659 0.1112069 0.0187880 0.1401644 -0.0018053 -0.0042465 -0.0006983 0.1777409 -0.0029774 -0.0034115 -0.0015490 -0.0971163 -0.0583507 0.0000264 -0.0030053 0.0938581 0.0640797 0.1379609 -0.0807573 0.0044066 -0.0005015 0.0497127 0.0521618 0.0023102 0.1747534 0.0000217 -0.1710545 -0.0014027 -0.0002826 -0.0047669 0.0002704 0.0000536 -0.0000500 -0.0568160 -0.1667659 -0.2498445 0.5202885 0.0006350 -0.0034833 -0.0193836 -0.2268952 0.1175196 -0.0004804 -0.0580703 0.0207978 0.0244295 -0.0019898 -0.0931135 0.0000390 0.0246141 -0.0037921 0.0624068 0.0297775 -0.0040216 0.0052025 0.0012150 0.3405710 -0.0132407 -0.0047473 -0.0000376 -0.0034380 -0.0016816 -0.0000012 0.0012540 -0.0005997 0.0176522 -0.0011787 -0.1539382 0.0063215 0.0365712 -0.0137389 -0.0649976 -0.0237238 -0.0620653 0.0001477 -0.0000933 0.0095178 -0.0137389 -0.0048949 0.0018025 0.0601346 -0.0042465 0.0077181 -0.0137389 -0.0010366 -0.0003182 -0.0002404 0.0439577 -0.0413761 -0.0036580 0.0001559 -0.0137389 -0.0635060 0.0002249 -0.0055038 0.0000654 -0.0005997 0.0000848 0.0000015 0.0001102 0.0272297 0.0001477 0.0274798 -0.0009427 -0.0008512 -0.1159473 0.2327793 -0.0085310 0.0002249 0.0000015 -0.0046812 -0.0005438 -0.0001563 -0.0639180 0.0000015 -0.0137389 0.0106760 -0.0193289 0.0207978 -0.0038871 0.0001309 -0.0002167 -0.0042465 -0.0011304 -0.0005015 -0.0004256 -0.0179301 0.3300107 -0.0003701 -0.0077770 -0.0144357 -0.0005997 -0.0453078 -0.0006303 0.0198930 -0.0014106 -0.0181102 -0.0007792 0.1398978 -0.0504499 -0.0186338 -0.0001070 0.0164046 -0.0448574 -0.0039560 -0.0007792 -0.0024989 -0.0009303 -0.0137389 -0.0004804 -0.0069663 0.0001559 0.0000015 0.1213032 -0.0004839 -0.0042093 0.0130368 0.0036783 -0.1467919 -0.0016023 0.0696426 -0.0009712 -0.0005680 -0.0137389 -0.0012869 0.0002124 0.0000448 0.0006686 0.0309261 -0.0012869 0.0130895 -0.0000430 -0.0000193 -0.3598761 -0.0001563 0.0626657 -0.0004256 0.1644773 -0.0001563 -0.0046562 0.0019984 0.0103824 0.0198930 -0.0012704 -0.0054236 -0.0001946 -0.0103583 -0.0413761 -0.0048949 -0.0001344 -0.0070723 -0.0033697 0.0116899 0.0000654 0.0177135 -0.0376373 -0.0067185 0.0032953 0.1446789 0.0001541 0.0006350 0.0587469 -0.0009850 -0.0481864 -0.0006753 -0.0504499 -0.0021884 0.0098360 -0.0000117 0.0000596 0.2422211 -0.0810126 0.0001102 0.0000848 -0.1968646 -0.0668448 0.0053384 -0.0093188 -0.0008183 0.0048643 -0.0007926 0.0786098 -0.0042465 -0.0007792 -0.0016022 -0.0042465 0.0497127 0.0497127 -0.0279757 0.0014417 0.0092080 -0.1710545 0.0006061 -0.0159827 0.0000690 -0.0515102 0.0000848 -0.0003207 -0.0071977 0.0000390 -0.0001778 -0.0473050 -0.0137389 -0.0580703 -0.0002539 -0.0251342 -0.0015159 -0.0051290 -0.0903214 0.1674396 0.0542256 0.0000903 0.1703600 -0.0001825 0.0002050 0.0000712 0.2962492 -0.3233670 -0.0014070 -0.0002439 -0.0004949 -0.0010366 0.0077181 -0.0280874 -0.0025248 -0.0347110 -0.0209176 0.0000217 -0.0265939 0.0301618 -0.0014646 -0.0004804 0.0041389 0.0002050 -0.0061948 -0.0096264 -0.0005015 -0.0100835 0.0000179 -0.0000144 0.3984605 0.0009718 -0.0000933 0.0202008 -0.0005015 -0.0016941 -0.0007581 -0.0009227 0.0587329 0.0000662 -0.0001344 -0.0055329 -0.0931135 0.0001309 -0.0004804 -0.0000933 -0.0971163 0.0098535 0.0432830 0.0000714 -0.0952544 0.1463587 -0.0081920 -0.0014027 -0.0070723 -0.0137389 0.0065637 0.0446919 -0.0152217 -0.0025248 -0.1775282 -0.0963825 -0.0978456 -0.0002407 -0.0099182 -0.0064590 -0.0010136 0.0000217 0.0442465 -0.0594315 0.0000775 0.0000168 -0.0683574 0.0098535 -0.0005034 -0.0000126 0.1903691 -0.0014070 -0.0010612 0.0001559 -0.0019738 0.0545440 0.0001559 -0.0429152 0.0195180 -0.4196595 -0.0983002 0.0230257 0.0105391 -0.0804072 -0.0048949 0.0009510 -0.0007792 0.1398978 -0.0209829 -0.1477414 0.0005635 0.0000015 -0.0043124 -0.0014027 0.0696426 -0.0015037 0.0012386 -0.0019568 -0.0931135 -0.0269283 0.0095349 -0.0024555 -0.0009666 -0.0001070 -0.0042058 -0.0209176 -0.0108559 -0.0004094 -0.0801780 0.0012138 -0.0042465 0.0000498 0.0012150 0.0786098 -0.0422395 0.0003084 -0.0246342 0.0994208 -0.0013847 0.0014142 -0.1834161 0.0328376 0.0001559 0.0436194 0.0294340 -0.0001549 -0.0019988 -0.0013512 0.0199778 0.0018204 -0.0072608 -0.0011787 -0.0048949 -0.0014659 -0.0018647 -0.0918013 0.0166417 -0.0081193 -0.0059841 -0.0011242 -0.0205345 0.0589941 -0.0048949 -0.5465433 -0.0126494 -0.0047728 -0.0012006 0.0001477 -0.0469198 -0.0001549 0.1067393 1.1372451 0.0000654 -0.0548563 -0.0069657 0.0001347 0.0000390 -0.0103962 -0.0047669 -0.0155137 -0.0001778 0.1378955 -0.0002407 -0.0137096 -0.0035952 -0.0010004 0.0023025 0.0006061 0.0023025 -0.0059148 -0.0016689 -0.0149920 -0.0049218 -0.0006753 -0.0006753 0.1258367 0.1108580 -0.1543844 -0.0002766 -0.0013442 -0.0059148 0.0002264 0.0000390 -0.0558270 0.0947313 -0.0200670 0.0002249 -0.0268347 0.0013459 -0.0010612 -0.0000481 -0.0180017 0.0003049 -0.0009266 -0.0013703 0.1471523 0.0000585 0.0002669 0.0494924 -0.0042465 -0.0002988 0.0860371 -0.0009266 -0.0000122 -0.0045474 0.0000139 0.0000596 -0.1027494 0.0000390 -0.0014150 0.0188074 0.0003293 -0.0207576 -0.0101774 -0.0005015 -0.0005015 -0.0003243 -0.0006753 -0.0035563 -0.0001070 -0.0045558 0.0225655 0.0000654 -0.0012867 0.0000194 0.0000274 0.0000217 0.0000139 0.1677565 -0.0016508 -0.1999109 -0.0107410 -0.0009383 0.1391498 0.0604459 -0.0180881 -0.0010612 -0.0001070 -0.0002339 -0.1688160 0.0006061 -0.0001070 -0.0007252 -0.0004704 0.0000848 -0.0010658 0.5088836 0.0000390 -0.0158329 -0.0005015 -0.0270911 0.0012150 -0.0035200 0.2693118 -0.0665084 -0.0100926 0.0008470 -0.0311388 0.0013709 0.0000848 0.0001559 0.0000435 0.0001309 0.0000536 0.0000988 -0.0000500 -0.0042465 0.0000015 -0.0523070 -0.0014027 0.0000806 0.0165522 -0.0048841 0.0001559 -0.0005015 0.0000139 -0.1147051 -0.0063615 -0.0033716 0.0000099 0.0001559 0.0372921 0.0008310 0.0188074 -0.1251879 -0.0033716 -0.0001070 0.0001751 -0.1366709 -0.0045819 -0.0657356 0.0000775 -0.0004798 0.3595415 -0.0000500 0.0000390 -0.0005015 -0.0285139 -0.0004504 -0.0059148 0.0000390 0.0001644 0.0644055 0.0001309 -0.0809406 -0.9815281 -0.7315070 -0.0265006 -0.0048949 -0.0004147 -0.0013847 0.0508398 0.0014498 0.0711327 -0.1241105 0.0000139 0.0009409 0.0404347 0.0093245 0.2582067 -0.0010612 0.0653230 0.0000109 0.0000217 0.0000662 -0.0001860 -0.0009360 -0.0049826 -0.0000013 -0.5229220 0.0266007 0.0072058 -0.0059148 -0.0014027 0.0000217 0.0000390 0.2169136 -0.2368256 0.1890839 0.0079252 0.0001325 -0.0031346 0.2590873 -0.0001885 0.0000179 -0.0000483 -0.0001147 0.0002249 0.2537249 0.0002605 -0.0001627 0.0000864 0.0006909 0.0000099 -0.0010658 -0.0041617 0.0000806 -0.0005015 0.5224073 -0.0042964 -0.0059148 0.0006737 0.0549201 0.0002249 0.3138297 -0.0047476 0.0545790 -0.0163680 0.0356270 -0.0859740 -0.0013637 -0.0014027 -0.0005015 0.0000536 0.0004204 0.0000390 -0.1450877 0.3722274 -0.0029308 -0.0003316 0.0000274 0.1088881 0.0000015 0.0548199 -0.0032687 0.0000498 -0.0035200 -0.3109248 0.0000775 -0.0021853 -0.0431935 -0.0022298 0.0002249 -0.5021433 -0.0092792 0.0053384 0.0002249 0.0588973 0.0038055 0.0077181 0.0000099 0.0001559 -0.0486666 -0.0006753 0.0000390 -0.0014158 -0.1317107 0.0006061 0.0000458 0.0000390 0.0075809 0.0033586 0.0647698 0.0000257 -0.0001860 -0.0009266 0.4807586 -0.0000237 0.0000498 0.0086458 0.0357329 -0.0058138 0.0001309 -0.0001070 0.0002249 0.0000390 0.0001309 -0.0075819 -0.0042075 -0.0001878 0.0012150 -0.0202270 0.0001455 -0.8707236 0.2399792 0.1680089 -0.0011193 0.0001694 0.0000732 0.0002249 -0.0728498 0.0191806 0.0852017 -0.0002327 -0.1399670 -0.0000635 0.0006061 -0.0001860 0.0001559 -0.0001070 -0.0135751 -0.6838195 0.0006737 0.0128926 -0.0265006 -0.0226061 -0.0188022 -0.0037988 0.0019584 -0.0014659 0.0076476 0.0000377 -0.0243549 -0.0045373 -0.0006753 -0.0008503 0.0000458 0.7289901 -0.0031346 0.0000848 -0.0270151 0.0153531 0.0006061 -0.0006753 -0.0000635 -0.0014027 0.0027173 -0.1125869 0.0000390 0.0025861 0.0005667 -0.0014027 0.1445982 -0.0006753 -0.0006753 0.0001697 0.0000139 0.0860371 -0.0000500 -0.0587243 0.0000654 -0.0014027 0.0001309 0.0001559 -0.1125281 -0.0006753 -0.0059148 0.2315156 -0.0010612 -0.0006753 -0.0029097 0.0042087 0.2141300 0.0006061 0.0215524 -0.0011787 0.0869543 0.0027362 0.0042810 -0.0205496 -0.0004798 0.0112410 0.1467229 0.1524156 0.3806534 0.2736287 0.1481377 -0.3079394 -0.2656362 -0.1345987 -0.0946872 -0.0946872 -0.0421207 -0.0946872 -0.0946872 -0.1836040 0.0525665 -0.1345987 -0.1836040 -0.1345987 -0.0946872 -0.0946872 -0.0946872 -0.0946872 -0.0946872 -0.0946872 -0.0946872 -0.1310586 0.0154258 0.1269941 -1.2030859 -1.3460445 2.5604916 -1.1161341 -0.6295428 1.7570382 -0.1546280 0.0040252 0.1619641 -0.0636684 -0.1564424 0.2314720
