0.0000000 -0.0072676 -0.0050374 0.5423850 0.5423850 -0.0211285 0.1680025 0.1200466 0.0722348 0.1200466 0.5423850 0.1200466 -0.0211285 -0.0689746 0.0712503 0.0528014 0.0091062 -0.0012840 -0.0944693 -0.0003485 -0.0000809 -0.4355599 -0.0125737 0.0006180 0.0040902 -0.0087316 -0.0016363 -0.0002289 -0.0636569 0.0094700 -0.0032231 -0.0007865 -0.0704801 0.0018505 0.0104820 -0.1329001 -0.0502108 0.0007336 0.0009601 -0.0091648 -0.0005004 -0.0072068 -0.0262810 -0.0000341 -0.0121941 -0.1222577 -0.0640834 -0.0001632 -0.0003289 0.0258973 0.6770858 0.0168751 -0.0001689 -0.0097900 -0.0051396 -0.0398821 0.0072613 -0.2675233 -0.0878275 -0.0049688 -0.0002489 -0.0265372 -0.1498459 0.0024276 -0.0000749 -0.0000630 -0.0517675 0.0277657 -0.0116141 0.0697206 0.0046139 0.0023043 0.0056187 -0.3142287 -0.0001321 -0.0001409 -0.0862206 -0.0659223 -0.0000425 -0.0005547 -0.0005547 0.0008288 0.0534489 -0.0050000 0.0010611 -0.0030322 -0.0572944 -0.0031962 -0.2203942 0.0027476 -0.0064312 -0.0000749 -0.0069657 0.0096027 -0.0000630 -0.0821440 -0.0010844 0.0006175 -0.0000595 0.0227543 -0.0003926 -0.0002503 -0.0006904 -0.1760478 0.2019242 -0.1166071 -0.0012282 0.1374356 -0.3638592 -0.0053680 0.0094700 0.1967807 -0.0021074 0.0026696 -0.0050677 -0.0012384 0.0092132 -0.0139600 0.0095975 -0.0862206 -0.0006096 -0.1478455 -0.0862206 -0.0003926 -0.0000341 -0.0837930 0.0094000 -0.0006096 0.0593637 -0.0552272 -0.0001169 -0.0000384 -0.0001409 -0.0000607 0.1615824 -0.0816062 -0.0095074 -0.0862206 -0.0000384 -0.0430074 0.0706542 0.3898120 -0.2756702 -0.0071202 0.0095729 -0.0568371 -0.0037054 0.2396879 -0.0092642 -0.3612134 0.0078455 0.0022428 0.0072613 -0.0001415 -0.0046793 -0.1486445 -0.0002890 0.0003966 -0.0414187 -0.0868302 -0.0000969 0.0079106 0.1143499 0.0334398 0.0697206 0.1743849 -0.0007496 0.0025028 0.5743248 -0.5507267 0.0018998 -0.0014058 -0.0669935 0.0004277 -0.0089655 -0.0866743 -0.0001242 0.0092132 -0.0087514 -0.0000749 -0.0611223 0.0002315 0.0609130 -0.0018243 -0.0000616 0.0012880 -0.0001242 -0.0004099 -0.0611223 -0.0060335 -0.0001242 -0.0077592 -0.0807395 -0.1081912 0.3558394 -0.0060345 0.0033037 0.0011187 0.0908829 -0.2820115 -0.0000205 -0.0006096 -0.0003726 0.0004307 -0.0054614 -0.0002289 -0.0461121 0.0346574 -0.0000616 -0.0001068 0.0069012 -0.0000706 -0.0213249 -0.0000205 -0.0862206 -0.0139338 -0.0328157 -0.0002289 0.0019001 -0.0862206 -0.0129581 -0.0060335 -0.3794720 0.1707744 0.0033037 -0.0001632 0.0103405 -0.0004668 0.1160038 0.3175339 0.0038345 -0.0001632 -0.0106799 0.0002315 -0.0139620 0.0017742 -0.0862206 -0.0073964 -0.0054614 0.0043284 0.0236410 -0.1175546 0.0382010 -0.0013171 -0.0023725 -0.0002289 0.0005236 -0.0015628 0.0228963 -0.0154057 0.0081367 -0.0007698 -0.0078757 -0.0862206 -0.1043023 -0.0105412 0.0011942 -0.0007335 -0.0009433 -0.0085769 -0.2219481 0.2462697 -0.0678323 -0.2202489 -0.0932514 -0.0014780 -0.0004141 -0.0040133 -0.0000595 0.1663057 -0.0000880 0.0850964 -0.0010934 -0.0592085 -0.1196820 0.0253669 -0.0003320 -0.0214472 0.0006401 -0.0000749 -0.0447718 -0.0066874 1.1267610 0.5411365 -0.0004025 -0.0195368 0.0006210 -0.0066874 -0.0038115 0.0003200 -0.0003319 -0.0039825 0.0335630 0.0001408 -0.0010844 -0.0143747 -0.0143747 0.0003200 -0.1341214 -0.0002289 -0.0007698 -0.0001321 -0.0017270 0.0084620 0.0196806 0.3103562 -0.0002289 0.0006464 -0.0030432 -0.0001415 0.0334398 0.0647729 0.0122110 0.3514036 -0.0886201 -0.0003490 -0.0006906 -0.0551135 -0.0003213 -0.0038017 -0.0000816 0.0478100 0.0173296 -0.0584189 0.0500238 -0.0137748 -0.0073964 -0.0014050 0.0004033 0.0474068 0.0060895 0.0006401 0.0167871 0.4464835 0.0022088 -0.0001836 -0.1447019 0.0031289 -0.0002289 0.3896902 0.0193796 0.1433056 -0.0005069 0.6718930 0.0625145 0.0490895 -0.0073964 -0.0335670 -0.0003730 0.4170024 -0.0021113 0.0001566 -0.0032063 -0.0007780 0.0825997 -0.0131084 -0.0618150 -0.0009198 0.0267607 -0.0000616 0.1261323 -0.0191717 0.0095729 -0.0015445 -0.0011718 -0.0037807 0.0157631 0.0094700 0.0159189 -0.0000708 -0.0005472 -0.0007698 -0.0009993 0.0031040 -0.0862206 0.3922396 0.0714339 0.0086830 0.0008288 -0.0003390 -0.0437510 -0.0137225 -0.0012029 0.0058543 -0.0035381 -0.0106799 -0.0018270 -0.0003213 0.1564893 -0.1809166 0.0548340 -0.0001179 -0.0019480 -0.1511603 -0.2910681 -0.1980135 -0.0109912 -0.0000978 -0.0000721 -0.2219481 -0.0109056 0.0002315 -0.0005039 -0.0002289 -0.0316493 0.0006401 -0.0003726 -0.0028352 -0.0072157 -0.0637812 0.0064280 -0.0030322 0.0027374 -0.0000969 -0.0485585 0.0002511 -0.0000341 0.0419616 0.0001408 -0.0062016 -0.0478312 0.0065278 0.0008288 0.0007272 0.0412179 0.1375964 -0.0003485 0.2299193 -0.0004668 -0.0944401 -0.0862206 0.0452526 -0.0003628 -0.0011315 -0.0992301 -0.0000205 -0.0129927 -0.0574621 -0.0714378 -0.0860678 -0.0090691 0.0122425 0.0225722 0.1714335 -0.0810298 -0.0562907 -0.0010116 -0.0114040 0.0004307 0.0037786 -0.0628726 -0.0772254 -0.0312488 -0.0073964 -0.0437510 -0.0165009 0.0329308 0.0592358 -0.0078757 0.0335630 -0.1036510 0.3489246 0.0012627 0.0173474 0.0693574 0.0111352 -0.0372568 -0.0028812 0.0025454 0.0706542 -0.0406980 -0.2815374 -0.0106799 -0.0131801 -0.1338101 0.0159945 -0.0005069 -0.2250454 -0.0194299 0.0004623 -0.0114040 -0.1329001 -0.0017071 0.0004277 0.6148442 -0.0034172 -0.0000756 0.0004826 -0.0032063 -0.0032063 0.6384852 0.0009601 -0.0141935 -0.0552272 0.0424816 -0.1193726 -0.0005039 -0.0320984 0.1707744 -0.0988862 -0.0021074 -0.0012029 -0.0034172 -0.0000657 0.0013205 -0.2910681 -0.1447019 -0.0003575 0.0586918 0.0586918 -0.0534696 -0.0031962 0.0894083 -0.0228286 0.0328095 0.0424816 0.0007336 -0.0862206 0.0138974 -0.0470571 -0.0021074 -0.1206931 0.0027759 0.0112993 -0.0106602 -0.0000384 -0.0073964 0.0022029 0.1722863 -0.0004668 -0.0052319 -0.0076337 -0.1127867 0.1381519 -0.0018547 -0.0006914 -0.2904212 -0.0127787 0.0019884 -0.0108386 0.0041400 0.0019282 0.2060515 -0.0005352 -0.0014050 0.1620370 0.1088447 -0.0000341 0.0445526 -0.0000205 -0.0006914 0.0003200 0.0011911 0.0105678 -0.0005393 -0.0789591 -0.0895807 0.0091479 -0.0958222 -0.0007865 -0.0000657 -0.0335272 -0.0001106 0.0438103 -0.0009972 -0.0007839 -0.0003562 0.0019282 -0.0003988 -0.0000341 -0.0606043 -0.0036896 -0.0010911 -0.0042708 -0.2987503 0.0095729 -0.0281484 0.0007336 0.0225722 -0.0000205 0.0036482 0.0067845 0.0739211 -0.0782437 -0.0002168 0.0428017 0.0068189 0.0026696 -0.2072471 0.1061090 -0.0944401 0.0038345 -0.0003213 0.0436664 -0.0356815 -0.0001775 -0.1175241 0.0027374 0.3722865 -0.0436161 0.0172374 0.0036801 0.0156897 -0.0068939 -0.0596428 0.0806036 -0.0111517 -0.0073964 -0.0147293 -0.0060711 -0.0007669 -0.0695633 0.0002315 0.1334516 -0.0003926 0.0299492 0.0196767 -0.0009650 0.0012880 -0.0001068 0.0465260 -0.5107168 0.4142070 -0.4769186 -0.0000834 -0.0064060 0.0023773 -0.1506436 -0.0485585 -0.0006244 -0.0028074 -0.0126155 -0.2872528 -0.0075379 -0.0028841 -0.0000341 -0.0058147 -0.1321179 -0.0205763 -0.0910018 -0.0000013 0.0319303 -0.0002289 -0.3978559 -0.0209471 0.0102130 0.0002511 -0.1347615 0.0188437 0.0094700 -0.0002630 0.0022029 -0.0278968 0.0058631 -0.1450594 -0.0013149 -0.0089745 -0.0862206 -0.0045145 0.0051440 -0.0371996 0.0006401 0.0006464 -0.0007998 -0.0862206 0.0095729 -0.0019480 -0.0156055 -0.0003213 -0.0468738 -0.0862206 0.0027976 0.0071840 0.0006441 -0.0023502 0.2196475 0.1736353 -0.0000205 -0.0862206 0.1767438 0.0003200 0.0304644 0.0024276 0.0022029 -0.0000616 0.0004307 -0.0001783 -0.0025926 0.0006401 -0.0420592 0.0018796 -0.0140046 0.2150067 -0.4130202 0.0131807 0.0003200 0.0004307 -0.0003320 0.0043284 0.0026373 0.0415527 0.0004307 -0.0862206 -0.0072515 0.0122110 -0.0126155 -0.0001179 0.0001408 -0.0002168 -0.0003213 0.0306914 -0.0073964 0.0057064 -0.1310699 0.0019133 0.0041789 0.0335630 -0.0584549 0.0022029 0.0433105 0.0048170 -0.0106602 0.0111352 -0.0026449 -0.0000969 -0.0314145 -0.0028959 -0.0766476 -0.0000708 0.0424600 0.0424816 0.1170143 -0.0000969 0.0041400 0.0014442 -0.0862206 -0.0006244 0.0098285 -0.0000205 0.0004307 -0.0821440 0.0068189 0.0232176 -0.0116171 -0.0030432 0.1709347 0.0026793 -0.0012714 0.0085755 -0.0017270 -0.0862206 0.0229647 -0.0005132 -0.0007992 -0.0005004 -0.0007220 0.0229647 -0.1031368 0.0004051 -0.0000756 0.1375964 0.0026373 -0.1347313 0.0057064 -0.1201134 0.0026373 0.0010768 -0.0017883 -0.0324023 -0.0106602 0.0035184 0.0647729 0.0011942 0.0094000 0.2196475 0.0095729 -0.0000978 0.0070043 -0.0944693 0.0280049 0.0024276 -0.0141935 -0.0076277 -0.0003789 -0.0002984 -0.0018243 -0.0005139 -0.0000834 -0.0104615 -0.0014382 -0.1349420 -0.0030322 -0.0028959 -0.2401373 -0.0060844 -0.0000197 -0.0037525 -0.0945943 0.1247169 -0.0001783 -0.0000616 0.6794287 -0.0053709 -0.0506824 -0.0214472 -0.0046217 -0.0001408 0.1186487 -0.0412823 -0.0003213 -0.0000969 -0.0002318 -0.0003213 -0.0147293 -0.0147293 -0.0042708 -0.0001662 0.0307276 0.1334516 -0.0007698 0.0022150 -0.0000749 0.0465196 -0.0000616 -0.0002826 -0.0316493 -0.0000341 0.0005161 0.0447591 -0.0862206 -0.0028074 0.0025454 0.0215169 0.0025628 -0.0003653 -0.1520971 -0.3638020 -0.0311738 -0.0003721 -0.1162350 0.0067791 -0.0003319 -0.0000050 -0.3274482 0.4854146 -0.0009733 0.0006180 0.0022428 0.0027976 -0.0468738 -0.0146288 0.0152582 -0.1339864 -0.0066874 0.0002315 -0.0122485 0.0608191 -0.0007878 -0.0006244 -0.0017164 -0.0003319 0.0078455 0.0282834 -0.0073964 -0.0037468 -0.0000607 -0.0000594 -0.2089029 -0.0028973 0.0006464 -0.1076265 -0.0073964 -0.0004067 -0.0156007 0.0000788 -0.0103799 -0.0006517 -0.0000978 -0.0040133 -0.0028841 0.0001408 -0.0006244 0.0006464 0.3722865 -0.0060335 -0.0013517 0.0219929 0.0988401 -0.2558785 0.0119522 -0.0003926 0.0070043 -0.0862206 0.0299258 -0.0281802 0.0265846 0.0152582 0.1653029 -0.0082378 0.1014824 -0.0006096 0.0332004 -0.0010557 -0.0119672 0.0002315 -0.2008106 -0.3424077 0.0002239 0.0022008 -0.1877376 -0.0060335 0.0019884 -0.0002116 -0.0995325 -0.0009733 0.0013034 -0.0000205 -0.0009822 -0.0068997 -0.0000205 0.0479237 -0.0049683 0.4234488 0.0349835 -0.0190183 -0.0113894 0.0970680 0.0095729 -0.0009993 -0.0000969 -0.0314145 -0.9314501 0.4244818 0.0126057 0.0004307 0.0801970 -0.0003926 -0.0012714 -0.0398821 -0.0015628 0.0031040 -0.0028841 0.0715852 -0.0062016 0.0086830 -0.0063394 -0.0000708 0.0002480 -0.0066874 -0.0219375 0.0039319 -0.2096043 0.0092411 -0.0003213 0.0069012 -0.0002289 -0.0412823 0.2201971 -0.0002755 0.0840101 -0.0696749 0.0173296 -0.0002489 0.4045454 -0.0133427 -0.0000205 0.0330160 0.0201023 0.0061598 0.0039364 0.0034177 -0.0107218 -0.0043281 -0.0010493 0.0058631 0.0095729 0.0026696 -0.0043294 -0.0196099 0.0047218 -0.0005815 -0.0025179 0.0095619 0.0274466 -0.0878639 0.0095729 -0.2250454 0.2206507 -0.0012284 0.0236410 0.0006401 -0.1205830 0.0061598 -0.0708228 -0.3902925 0.0024276 0.1374506 0.0053994 -0.0004796 -0.0000341 -0.0106799 0.0196767 -0.0909049 0.0005161 -0.0620704 -0.0006096 -0.0004099 -0.0003562 0.0203250 -0.0023907 -0.0007698 -0.0023907 0.0085249 -0.0004271 -0.0231511 -0.0033535 -0.0030322 -0.0030322 -0.0624827 -0.0949795 -0.0756689 -0.0070764 -0.0000567 0.0085249 0.0007507 -0.0000341 0.1539795 -0.0586359 0.2276754 0.0003200 -0.4811584 -0.0000880 0.0013034 -0.0003817 -0.0228886 -0.0028352 -0.0003490 -0.0222486 -0.1566346 0.0003359 0.0037375 -0.1237210 -0.0003213 0.0024667 -0.0827503 -0.0003490 -0.0005033 -0.0598189 -0.0000816 -0.0037525 0.2012675 -0.0000341 0.0129705 -0.0001591 -0.0006907 -0.4782857 -0.0580554 -0.0073964 -0.0073964 -0.0011679 -0.0030322 0.0955296 -0.0000708 -0.0310392 -0.0250418 0.0024276 0.0089751 0.0003700 0.0005072 0.0002315 -0.0000816 -0.2495927 0.0081367 0.3696922 0.0117223 -0.0019672 0.0611862 -0.1896647 -0.0023155 0.0013034 -0.0000708 -0.0001054 0.0512755 -0.0007698 -0.0000708 -0.0031390 -0.0554485 -0.0000616 0.0116733 -0.6697938 -0.0000341 0.0253618 -0.0073964 -0.0159887 -0.0002289 0.0801336 -0.1886893 0.0806084 -0.0581170 0.0010893 -0.0058385 -0.0002494 -0.0000616 -0.0000205 0.0083124 0.0001408 0.0012880 0.0004705 -0.0001068 -0.0003213 0.0004307 0.2113671 -0.0003926 0.0010741 -0.0137592 0.0106480 -0.0000205 -0.0073964 -0.0000816 0.1889852 0.0109132 0.0756970 -0.0000595 -0.0000205 -0.1817286 -0.0004498 -0.0001591 0.6996772 0.0756970 -0.0000708 -0.0010273 -0.0898625 -0.0451359 0.8080883 0.0002239 -0.0061337 -0.2489379 -0.0001068 -0.0000341 -0.0073964 0.0656450 -0.0027122 0.0085249 -0.0000341 -0.0006290 -0.0698516 0.0001408 0.1215609 0.7285969 0.3876378 -0.0128949 0.0095729 -0.0112189 0.0173296 0.0497984 0.0045823 0.0107673 0.2053366 -0.0000816 -0.0018367 -0.5479893 -0.0084268 0.1327657 0.0013034 -0.0285825 0.0010751 0.0002315 -0.0006517 0.0034910 -0.0040895 -0.0356182 -0.0000797 0.8228393 -0.1029526 0.0816464 0.0085249 -0.0003926 0.0002315 -0.0000341 -0.1202633 0.4159750 -0.1964306 -0.0458274 0.0005715 0.0909548 -0.0466949 0.0020774 -0.0000607 -0.0002884 -0.0006074 0.0003200 -0.1870046 -0.0003162 0.0006192 -0.0003199 -0.0008314 -0.0000595 0.0116733 -0.0003829 0.0010741 -0.0073964 -0.5545276 -0.0004281 0.0085249 -0.0010765 -0.2422547 0.0003200 -0.0043012 -0.0381772 -0.0183779 0.1053753 -0.0166224 0.3209057 -0.0004267 -0.0003926 -0.0073964 0.0012880 -0.0010069 -0.0000341 0.3153914 -0.1490360 -0.0016964 -0.0074985 0.0005072 0.1020032 0.0004307 -0.0184314 -0.0065770 0.0069012 0.0801336 0.1259271 0.0002239 0.0308357 0.1203400 0.0080715 0.0003200 0.1528278 0.1441833 -0.0506824 0.0003200 0.0078638 -0.0169378 -0.0468738 -0.0000595 -0.0000205 0.1755346 -0.0030322 -0.0000341 0.1488578 0.1784027 -0.0007698 -0.0000630 -0.0000341 -0.0038219 -0.0024648 -0.0458866 0.0003320 0.0034910 -0.0003490 -0.2611743 0.0022961 0.0069012 -0.0027931 -0.0147047 -0.0018596 0.0001408 -0.0000708 0.0003200 -0.0000341 0.0001408 -0.0714179 -0.0003554 -0.0006214 -0.0002289 -0.0089861 0.0001358 -0.1234819 -0.1335072 -0.0708387 -0.0363490 0.0008717 0.0007272 0.0003200 0.1613132 -0.0009456 -0.0793339 -0.0002302 0.0794803 -0.0000819 -0.0007698 0.0034910 -0.0000205 -0.0000708 0.0637500 0.1094878 -0.0010765 0.0083658 -0.0128949 -0.4807764 -0.0002718 -0.0023324 -0.0037485 0.0026696 -0.0074170 0.0007872 -0.0180977 0.0905622 -0.0030322 0.0017267 -0.0000630 -0.2333271 0.0909548 -0.0000616 -0.0200362 0.0042278 -0.0007698 -0.0030322 -0.0000819 -0.0003926 -0.0043603 0.1943025 -0.0000341 0.0779040 -0.0011473 -0.0003926 -0.1458146 -0.0030322 -0.0030322 -0.0000166 -0.0000816 -0.0827503 -0.0001068 -0.0233039 0.0024276 -0.0003926 0.0001408 -0.0000205 -0.3053724 -0.0030322 0.0085249 -0.0222067 0.0013034 -0.0030322 0.0912748 0.0285881 0.0238120 -0.0007698 -0.0094036 0.0058631 0.1752689 -0.0021090 -0.0160402 -0.3287077 -0.0061337 -0.0005170 -0.4224889 0.4417055 -0.3432866 -0.0615672 -0.3411205 0.6680638 -0.2563661 -0.0841643 0.0186734 0.0186734 -0.2575782 0.0186734 0.0186734 0.1040497 -0.2762516 -0.0841643 0.1040497 -0.0841643 0.0186734 0.0186734 0.0186734 0.0186734 0.0186734 0.0186734 0.0186734 0.2081523 -0.4686240 0.1487355 2.3572670 -1.1784724 -1.2905308 1.6248472 -0.4941943 -1.2423891 0.3424206 -0.1407512 -0.3134056 0.0774970 -0.2771301 0.0878969
0.0000000 0.0651748 -0.0203782 -0.4328663 -0.4328663 0.3608282 -0.1920659 0.0417265 0.4360011 0.0417265 -0.4328663 0.0417265 0.3608282 -0.1107101 -0.0604162 -0.0470823 0.0008127 0.0070252 0.0975841 0.0008045 -0.0001161 0.5154439 -0.0016796 -0.0002553 -0.0037965 -0.0054302 -0.0001622 -0.0010357 0.1379876 -0.0091740 -0.0196107 -0.0003474 -0.0242005 -0.0005320 -0.0102998 0.1682050 -0.0763635 -0.0002551 -0.0005294 -0.0027859 -0.0008131 -0.0058111 -0.0005214 -0.0001986 -0.2356211 0.2089168 0.0912950 -0.0001572 -0.0004705 -0.0253099 -0.4802984 -0.0063599 0.0002926 0.0149731 0.0264006 0.0411549 -0.0070311 0.3222054 0.1504064 0.0063661 -0.0029714 -0.0478046 0.2629655 -0.0021758 -0.0000477 -0.0001562 -0.2935890 -0.0263587 -0.0531213 0.0381680 -0.0026638 -0.0018241 -0.0008927 0.3111217 -0.0001196 0.0003215 0.1034662 -0.0435408 -0.0001873 0.0026586 0.0026586 -0.0004893 0.0324907 0.0143400 -0.0004460 0.0089595 -0.3048820 0.0048958 0.2224655 -0.0024554 0.0111758 -0.0000477 0.0081657 -0.0051736 -0.0001562 -0.0348565 0.0011496 0.0006951 0.0001206 0.0539254 0.0019477 0.0110491 0.0048149 0.2849238 0.2962241 -0.0409387 0.0109467 0.0182168 0.1741995 0.0065655 -0.0091740 -0.4708273 0.0174411 -0.0016861 0.0095633 0.0050488 -0.0006489 -0.0260924 -0.0055870 0.1034662 0.0009534 0.0076449 0.1034662 0.0019477 -0.0001986 0.1012904 -0.0002495 0.0009534 -0.1345100 -0.0549586 -0.0001353 -0.0000143 0.0003215 0.0001773 -0.1359823 -0.0508248 -0.0321164 0.1034662 -0.0000143 0.1374768 -0.0606315 -0.0914966 0.3162897 0.0124970 -0.0028276 -0.0104675 0.0071533 -0.1922659 -0.0085573 0.1702064 -0.0001801 -0.0014265 -0.0070311 0.0014368 -0.0095989 0.1861514 -0.0034640 -0.0005748 0.0248536 0.1044196 0.0005749 -0.0066168 -0.0809398 -0.0486581 0.0381680 -0.1674379 -0.0026833 -0.0013494 0.6769253 -0.0239120 -0.0018005 -0.0030028 -0.0357722 -0.0002719 -0.0511454 0.1203383 -0.0002460 -0.0006489 -0.0068463 -0.0000477 0.0650860 -0.0000981 0.0597335 -0.1164066 -0.0002889 -0.0008640 -0.0002460 0.0176735 0.0650860 -0.0008513 -0.0002460 0.0076237 0.0814186 0.1217846 0.0017684 0.0542697 -0.0023194 0.0054408 0.1154861 0.2413630 -0.0001110 0.0009534 0.0024588 -0.0003762 -0.0044630 -0.0010357 0.0521360 -0.0269431 -0.0002889 0.0002555 -0.0012667 -0.0001521 -0.1185899 -0.0001110 0.1034662 0.0149138 0.0336831 -0.0010357 -0.0004420 0.1034662 0.2184263 -0.0008513 0.4000674 -0.1193818 -0.0023194 -0.0001572 -0.0088630 0.0036403 -0.1006288 0.1082090 -0.0013950 -0.0001572 0.0204519 -0.0000981 -0.0007131 -0.0013848 0.1034662 0.0085420 -0.0044630 -0.0030027 -0.0217619 0.2711744 -0.0363035 -0.0003451 -0.0002243 -0.0010357 -0.0003314 -0.0001853 -0.0068101 0.0230218 -0.0007176 -0.0001144 -0.0071042 0.1034662 0.0493094 -0.1369630 -0.0008414 -0.0002501 0.0031126 -0.0115992 0.2298688 -0.1354126 -0.0962395 -0.0140560 -0.0480700 0.0092052 0.0026435 0.0090257 0.0001206 -0.0924129 -0.0010701 -0.0078584 -0.0013688 0.1305431 0.0366578 -0.0155485 0.0052388 0.0298182 -0.0004469 -0.0000477 -0.0355728 0.0294185 -1.0738777 -0.5354732 0.0028360 -0.0164953 -0.0003654 0.0294185 -0.0002037 -0.0000779 -0.0001017 -0.0083105 -0.0266960 -0.0000344 0.0011496 -0.0364166 -0.0364166 -0.0000779 0.1386882 -0.0010357 -0.0001144 -0.0001196 0.0024877 0.0057489 -0.0119690 0.0133471 -0.0010357 -0.0004660 -0.0002499 0.0014368 -0.0486581 -0.0570963 0.0068543 0.0004386 0.0683090 0.0015351 -0.0007030 -0.0442455 0.0025439 -0.0707471 -0.0004263 -0.0034173 -0.0100885 -0.0093231 -0.0099172 0.0286156 0.0085420 -0.0307795 -0.0001168 -0.0033005 -0.0050480 -0.0004469 -0.0035227 -0.3958471 -0.0026074 -0.0004208 0.3269521 -0.0030735 -0.0010357 0.0615409 -0.0092140 -0.0107794 -0.0015704 -0.9478569 -0.0113411 -0.0334007 0.0085420 -0.0418387 -0.0003275 -0.0237985 0.0059259 -0.0001458 0.0050788 -0.0007930 -0.0356466 -0.0104639 -0.0302701 0.0241319 -0.0050753 -0.0002889 -0.1956426 -0.0729648 -0.0028276 -0.0364242 -0.0097202 -0.0327335 -0.0068620 -0.0091740 -0.0093868 0.0002327 0.0008263 -0.0001144 -0.0002637 -0.0005358 0.1034662 -0.0936724 -0.0434961 -0.0061282 -0.0004893 -0.0000565 0.0698113 0.0292478 -0.0003531 -0.0015058 -0.0182632 0.0204519 -0.0840484 0.0025439 0.1287070 0.2510474 -0.0092880 0.0048948 -0.0001078 -0.0369411 0.3149547 0.1451552 0.0391107 0.0003317 0.0026987 0.2298688 0.0195925 -0.0000981 0.0014122 -0.0010357 0.0393368 -0.0004469 0.0024588 -0.0013002 -0.0063594 -0.0054196 -0.0048529 0.0089595 -0.0010546 0.0005749 -0.0829626 -0.0001664 -0.0001986 -0.0412681 -0.0000344 -0.0014117 -0.2956323 -0.0036234 -0.0004893 -0.0002746 -0.0014228 0.2736067 0.0008045 -0.1132195 0.0036403 -0.0290455 0.1034662 -0.0205835 -0.0009183 0.0041735 -0.2483968 -0.0001110 0.0375010 0.0731541 0.0707657 0.1843825 -0.0176959 -0.0045138 -0.0040109 -0.1638263 -0.2198148 -0.1811933 0.0070306 0.0137541 -0.0003762 -0.0019176 -0.1166103 0.1168818 -0.0208003 0.0085420 0.0698113 -0.0050655 0.0013720 0.0880022 -0.0071042 -0.0266960 0.0095100 -0.3176396 -0.0009901 -0.0094971 -0.0050604 -0.0101995 -0.0014063 -0.0501572 -0.0020830 -0.0606315 -0.0006700 -0.0134123 0.0204519 -0.0035699 -0.1071577 -0.0023953 -0.0015704 0.8039173 -0.0167507 -0.0001947 0.0137541 0.1682050 0.0100139 -0.0002719 -0.2211494 -0.0001532 -0.0002668 -0.0002645 0.0050788 0.0050788 -0.2429113 -0.0005294 -0.0006150 -0.0549586 -0.0024943 0.1463587 0.0014122 0.0608484 -0.1193818 -0.1973493 0.0174411 -0.0003531 -0.0001532 -0.0000779 -0.0006991 0.3149547 0.3269521 0.0119137 -0.0240373 -0.0240373 -0.0152680 0.0048958 -0.0154391 0.0142081 -0.0319762 -0.0024943 -0.0002551 0.1034662 0.0752020 0.0699361 0.0174411 0.1470578 -0.0020484 -0.0090782 -0.0033023 -0.0000143 0.0085420 -0.0013159 0.0060200 0.0036403 -0.0138873 -0.0677538 -0.0906025 -0.0286671 -0.0043594 0.0011019 0.4339591 -0.0111941 -0.0012402 -0.0033433 -0.0019437 -0.0018773 -0.0955231 0.0012085 -0.0307795 -0.1470886 -0.0726934 -0.0001986 -0.0187482 -0.0001110 0.0011019 -0.0000779 -0.0002891 -0.0085313 -0.0009581 0.1005564 -0.0039114 -0.0020220 0.1223603 -0.0003474 -0.0000779 -0.0417322 0.0001262 -0.0341729 -0.0178343 -0.0009165 0.0059064 -0.0018773 0.0034283 -0.0001986 0.1455751 -0.0005694 0.0024295 0.0293148 0.2451687 -0.0028276 0.0525601 -0.0002551 -0.0040109 -0.0001110 -0.0026428 -0.0053947 -0.1464504 -0.2223114 0.0006451 -0.0025722 -0.0058476 -0.0016861 0.0960841 -0.1547865 -0.0290455 -0.0013950 0.0025439 -0.0385577 -0.1608226 0.0046667 0.1225154 -0.0010546 -0.2727344 0.0845055 -0.0166197 -0.0011002 -0.1067719 -0.1584780 -0.0608353 0.0027912 -0.0012055 0.0085420 -0.0257237 -0.0514377 -0.0011320 -0.0506866 -0.0000981 0.0692294 0.0019477 -0.0293613 -0.0150396 -0.0001520 -0.0008640 0.0002555 0.0036079 0.6589204 -0.1476933 -0.0347748 -0.0008950 0.0150067 0.0146878 0.3526217 -0.0829626 0.0019402 0.0604452 -0.0110368 0.3438596 0.0099788 0.0833377 -0.0001986 -0.0305380 0.1377513 -0.0378282 0.0733130 0.0024660 -0.0314097 -0.0010357 0.0144346 0.0311127 -0.0032745 -0.0001664 0.1391351 -0.0109791 -0.0091740 -0.0012343 -0.0013159 -0.0041309 -0.0040916 0.3388658 -0.0050724 -0.0316835 0.1034662 0.0704592 0.0140073 0.0894292 -0.0004469 -0.0004660 -0.0074923 0.1034662 -0.0028276 -0.0001078 -0.0451376 0.0025439 -0.0381371 0.1034662 -0.0017815 -0.0025487 -0.0002442 -0.0364939 -0.1745318 -0.1701212 -0.0001110 0.1034662 -0.1132431 -0.0000779 -0.0231929 -0.0021758 -0.0013159 -0.0002889 -0.0003762 -0.0000410 -0.0706739 -0.0004469 -0.0020746 -0.0005530 0.0151465 -0.0351821 0.1803373 -0.0042904 -0.0000779 -0.0003762 0.0052388 -0.0030027 -0.0023950 0.0159790 -0.0003762 0.1034662 -0.1324328 0.0068543 -0.0110368 0.0048948 -0.0000344 0.0006451 0.0025439 -0.0296334 0.0085420 -0.0035635 0.1546121 -0.3641872 -0.0019189 -0.0266960 0.0771076 -0.0013159 -0.0029836 -0.0040967 -0.0033023 -0.0101995 0.0161557 0.0005749 -0.0916830 0.0551050 0.1006386 0.0002327 -0.0580245 -0.0024943 -0.1089592 0.0005749 -0.0019437 -0.0001562 0.1034662 0.0019402 -0.0037064 -0.0001110 -0.0003762 -0.0348565 -0.0058476 -0.0093540 -0.0012131 -0.0002499 -0.0298509 -0.0010213 -0.0675786 -0.0020608 0.0024877 0.1034662 -0.0212546 -0.0004624 -0.0004706 -0.0008131 -0.2719809 -0.0212546 0.0014923 -0.0002737 -0.0002668 0.2736067 -0.0023950 0.0936070 -0.0035635 -0.0282574 -0.0023950 0.0018405 -0.0002586 0.0274223 -0.0033023 -0.0015358 -0.0570963 -0.0008414 -0.0002495 -0.1745318 -0.0028276 0.0003317 -0.0009558 0.0975841 -0.0350888 -0.0021758 -0.0006150 0.0492828 0.0081607 -0.0021823 -0.1164066 -0.0003392 -0.0008950 -0.0356646 0.0035987 0.1922474 0.0089595 0.0551050 0.2449598 -0.0009882 -0.0000153 -0.0059347 -0.1621415 -0.0404075 -0.0000410 -0.0002889 -0.3863176 0.1314759 -0.0261618 0.0298182 0.0148070 -0.0063436 -0.1167845 -0.0252835 0.0025439 0.0005749 0.0024244 0.0025439 -0.0257237 -0.0257237 0.0293148 -0.0065193 -0.0419253 0.0692294 -0.0001144 0.0079481 -0.0000477 0.0017289 -0.0002889 0.0005916 0.0393368 -0.0001986 -0.0001950 -0.0015236 0.1034662 0.0604452 -0.0020830 -0.0014463 -0.0014307 0.0064587 0.2404849 0.1670902 -0.0207525 -0.0000345 -0.0409042 -0.0055380 -0.0001017 -0.0006813 0.0312011 -0.1731565 0.0034753 -0.0002553 -0.0014265 -0.0017815 -0.0381371 0.0439706 -0.0126106 0.1599989 0.0294185 -0.0000981 0.0367033 -0.0837334 0.0018672 0.0019402 -0.0160701 -0.0001017 -0.0001801 -0.0141864 0.0085420 0.0134918 0.0001773 -0.0003135 -0.1757440 -0.0001437 -0.0004660 0.0574839 0.0085420 0.0022602 0.0277324 0.0012632 -0.0352383 -0.0003624 0.0003317 0.0090257 0.0833377 -0.0000344 0.0019402 -0.0004660 -0.2727344 -0.0008513 -0.0358710 -0.0214815 -0.0215766 -0.0721389 -0.0022484 0.0019477 -0.0009558 0.1034662 -0.0410402 -0.0049246 0.0036770 -0.0126106 -0.0079818 0.0939672 -0.0113594 0.0009534 -0.0194227 0.0448236 0.0129667 -0.0000981 0.2116815 0.4313645 -0.0000606 -0.0017731 0.2500607 -0.0008513 -0.0012402 0.0002725 -0.0673694 0.0034753 -0.0001219 -0.0001110 0.0034121 -0.0526269 -0.0001110 -0.0108349 -0.0130628 -0.0054006 0.0786177 -0.0044450 -0.0015699 -0.0139135 -0.0028276 -0.0002637 0.0005749 -0.0916830 0.9433391 -0.2843711 -0.0124026 -0.0003762 -0.0739162 0.0019477 -0.0675786 0.0411549 -0.0001853 -0.0005358 0.0833377 -0.0464192 -0.0014117 -0.0061282 0.0081280 0.0002327 0.0023297 0.0294185 0.0320976 -0.0013545 0.2984011 -0.0102098 0.0025439 -0.0012667 -0.0010357 -0.0252835 -0.1712693 -0.0024104 -0.0160645 -0.0176785 -0.0100885 -0.0029714 -0.2087594 -0.0238252 -0.0001110 -0.0760270 -0.0431270 -0.0057016 -0.0020433 -0.0006349 -0.0035911 -0.0005451 0.0088654 -0.0040916 -0.0028276 -0.0016861 0.0076831 0.1005437 -0.0187765 0.0085480 0.0087906 -0.0020047 -0.0067267 0.0444765 -0.0028276 0.8039173 -0.2029870 0.0047484 -0.0217619 -0.0004469 0.1454020 -0.0057016 -0.0261735 -0.7001810 -0.0021758 -0.0736688 -0.0005265 -0.0005819 -0.0001986 0.0204519 -0.0150396 0.1088276 -0.0001950 -0.0586594 0.0009534 0.0176735 0.0059064 -0.0173654 -0.0004045 -0.0001144 -0.0004045 -0.0023085 0.0030786 0.0071958 0.0115034 0.0089595 0.0089595 -0.0445912 -0.0143269 0.2286947 0.0084641 0.0015501 -0.0023085 -0.0004541 -0.0001986 -0.0970336 -0.0399093 -0.2105609 -0.0000779 0.5004469 -0.0010701 -0.0001219 0.0005935 0.0544553 -0.0013002 0.0015351 0.0247746 -0.0091379 -0.0003976 -0.0032783 0.0635243 0.0025439 -0.0021370 -0.0018307 0.0015351 -0.0002168 0.0649641 -0.0004263 -0.0059347 -0.0372767 -0.0001986 -0.0009849 -0.0178835 -0.0004931 0.4994945 0.0710658 0.0085420 0.0085420 0.0022565 0.0089595 -0.0904708 0.0002327 0.0359772 -0.0385201 -0.0021758 -0.0012483 -0.0001990 -0.0003653 -0.0000981 -0.0004263 0.1056332 -0.0031748 -0.0260064 0.0050528 0.0106923 -0.2153900 0.1022947 0.0164927 -0.0001219 0.0002327 0.0023494 0.1211625 -0.0001144 0.0002327 0.0092149 0.0573510 -0.0002889 -0.0082356 0.1709115 -0.0001986 -0.0026923 0.0085420 0.0458400 -0.0010357 -0.0757397 -0.0900029 -0.0081956 0.0707770 -0.0012227 0.0347860 -0.0011467 -0.0002889 -0.0001110 -0.0073823 -0.0000344 -0.0008640 -0.0000698 0.0002555 0.0025439 -0.0003762 -0.1631820 0.0019477 -0.0001329 -0.0057380 -0.0038511 -0.0001110 0.0085420 -0.0004263 -0.0888019 -0.0056003 -0.0717362 0.0001206 -0.0001110 0.0844482 -0.0001923 -0.0178835 -0.4884789 -0.0717362 0.0002327 -0.0002311 0.2280797 0.0504076 -0.7248953 -0.0000606 0.0075519 -0.0611917 0.0002555 -0.0001986 0.0085420 -0.0404785 0.0088816 -0.0023085 -0.0001986 -0.0001002 -0.0064280 -0.0000344 0.0045346 0.2879311 0.3489517 0.0371694 -0.0028276 0.0172761 -0.0100885 -0.0663523 -0.0049879 -0.0803077 -0.0940156 -0.0004263 -0.0010683 0.5086856 -0.0013980 -0.3994489 -0.0001219 -0.0344841 -0.0010234 -0.0000981 -0.0003624 -0.0030429 0.0067808 0.0433731 0.0002373 -0.3323900 0.1104772 -0.0611587 -0.0023085 0.0019477 -0.0000981 -0.0001986 -0.1027350 -0.0240296 -0.0062401 0.0400628 -0.0004106 -0.0873957 -0.2682805 -0.0008246 0.0001773 0.0005359 0.0009087 -0.0000779 -0.0775836 -0.0001182 -0.0002227 -0.0000595 -0.0004032 0.0001206 -0.0082356 0.0022551 -0.0001329 0.0085420 0.0359473 0.0027994 -0.0023085 -0.0000687 0.1856351 -0.0000779 -0.3163010 0.0441524 -0.0013530 -0.0836434 -0.0359791 -0.2158831 0.0017491 0.0019477 0.0085420 -0.0008640 -0.0002757 -0.0001986 -0.1100856 -0.2170756 0.0066415 0.0080047 -0.0003653 -0.2270798 -0.0003762 -0.0033908 0.1160997 -0.0012667 -0.0757397 0.2057415 -0.0000606 -0.0281547 -0.0807645 -0.0040454 -0.0000779 0.3593733 -0.1103879 -0.0261618 -0.0000779 -0.0751629 -0.0045221 -0.0381371 0.0001206 -0.0001110 -0.0236694 0.0089595 -0.0001986 -0.1447488 -0.0100229 -0.0001144 -0.0001562 -0.0001986 -0.0081374 -0.0000473 -0.0081616 -0.0001039 -0.0030429 0.0015351 -0.2413990 -0.0017659 -0.0012667 -0.0207641 -0.0239690 0.0445106 -0.0000344 0.0002327 -0.0000779 -0.0001986 -0.0000344 0.0810627 0.0023453 0.0009120 -0.0010357 0.0334154 -0.0005856 0.9846909 -0.0946036 -0.1781597 0.0390763 -0.0005450 -0.0002746 -0.0000779 -0.1327597 -0.0182310 -0.0481938 0.0014549 0.0710293 0.0002462 -0.0001144 -0.0030429 -0.0001110 0.0002327 -0.0011675 0.5376657 -0.0000687 -0.0201920 0.0371694 0.4977257 0.0159347 0.0066576 -0.0000476 -0.0016861 -0.0171375 -0.0005004 0.0317176 -0.0854480 0.0089595 0.0000596 -0.0001562 -0.4369744 -0.0873957 -0.0002889 0.0455034 -0.0215139 -0.0001144 0.0089595 0.0002462 0.0019477 -0.0004334 -0.0857789 -0.0001986 -0.0803505 0.0001640 0.0019477 -0.0002093 0.0089595 0.0089595 0.0004309 -0.0004263 -0.0018307 0.0002555 0.1112955 -0.0021758 0.0019477 -0.0000344 -0.0001110 0.4141986 0.0089595 -0.0023085 -0.2064816 -0.0001219 0.0089595 -0.0874736 -0.0365834 -0.2195873 -0.0001144 -0.0302435 -0.0040916 -0.2285978 -0.0141224 -0.0005991 0.3621170 0.0075519 -0.0123694 0.2805380 -0.5895037 -0.0637499 -0.2206532 0.1797952 -0.3331338 0.4933851 0.2035931 0.0672839 0.0672839 0.2801875 0.0672839 0.0672839 0.0768883 0.2129036 0.2035931 0.0768883 0.2035931 0.0672839 0.0672839 0.0672839 0.0672839 0.0672839 0.0672839 0.0672839 -0.0610360 0.3695032 -0.3767302 -1.1861508 2.5991029 -1.4812152 -0.5891306 1.1019334 -0.5810659 -0.2438824 0.0423301 0.1332892 -0.0542312 0.4028697 -0.4169017
0.0000000 -0.0579072 0.0254156 -0.1095186 -0.1095186 -0.3396996 0.0240633 -0.1617731 -0.5082359 -0.1617731 -0.1095186 -0.1617731 -0.3396996 0.1796847 -0.0108341 -0.0057191 -0.0099189 -0.0057412 -0.0031148 -0.0004560 0.0001969 -0.0798840 0.0142533 -0.0003627 -0.0002937 0.0141618 0.0017985 0.0012646 -0.0743307 -0.0002959 0.0228338 0.0011339 0.0946806 -0.0013185 -0.0001822 -0.0353049 0.1265743 -0.0004786 -0.0004307 0.0119507 0.0013135 0.0130179 0.0268024 0.0002327 0.2478153 -0.0866591 -0.0272116 0.0003204 0.0007993 -0.0005874 -0.1967874 -0.0105152 -0.0001238 -0.0051831 -0.0212610 -0.0012728 -0.0002301 -0.0546821 -0.0625790 -0.0013973 0.0032203 0.0743418 -0.1131196 -0.0002518 0.0001227 0.0002192 0.3453565 -0.0014070 0.0647354 -0.1078886 -0.0019501 -0.0004801 -0.0047260 0.0031070 0.0002517 -0.0001806 -0.0172457 0.1094631 0.0002298 -0.0021039 -0.0021039 -0.0003395 -0.0859396 -0.0093400 -0.0006151 -0.0059273 0.3621764 -0.0016996 -0.0020713 -0.0002922 -0.0047446 0.0001227 -0.0012000 -0.0044290 0.0002192 0.1170005 -0.0000652 -0.0013126 -0.0000611 -0.0766796 -0.0015551 -0.0107988 -0.0041244 -0.1088760 -0.4981483 0.1575458 -0.0097185 -0.1556524 0.1896597 -0.0011975 -0.0002959 0.2740466 -0.0153338 -0.0009834 -0.0044957 -0.0038104 -0.0085643 0.0400524 -0.0040105 -0.0172457 -0.0003437 0.1402006 -0.0172457 -0.0015551 0.0002327 -0.0174974 -0.0091505 -0.0003437 0.0751463 0.1101858 0.0002522 0.0000528 -0.0001806 -0.0001166 -0.0256000 0.1324310 0.0416239 -0.0172457 0.0000528 -0.0944694 -0.0100227 -0.2983154 -0.0406195 -0.0053768 -0.0067453 0.0673046 -0.0034478 -0.0474219 0.0178215 0.1910070 -0.0076655 -0.0008164 -0.0002301 -0.0012953 0.0142782 -0.0375069 0.0037530 0.0001783 0.0165651 -0.0175894 -0.0004780 -0.0012938 -0.0334101 0.0152184 -0.1078886 -0.0069470 0.0034329 -0.0011533 -1.2512501 0.5746387 -0.0000993 0.0044086 0.1027656 -0.0001559 0.0601110 -0.0336640 0.0003703 -0.0085643 0.0155977 0.0001227 -0.0039637 -0.0001334 -0.1206465 0.1182309 0.0003505 -0.0004240 0.0003703 -0.0172636 -0.0039637 0.0068848 0.0003703 0.0001355 -0.0006791 -0.0135934 -0.3576079 -0.0482352 -0.0009843 -0.0065594 -0.2063690 0.0406485 0.0001315 -0.0003437 -0.0020862 -0.0000544 0.0099244 0.0012646 -0.0060239 -0.0077143 0.0003505 -0.0001486 -0.0056345 0.0002228 0.1399148 0.0001315 -0.0172457 -0.0009800 -0.0008674 0.0012646 -0.0014581 -0.0172457 -0.2054682 0.0068848 -0.0205954 -0.0513927 -0.0009843 0.0003204 -0.0014775 -0.0031736 -0.0153749 -0.4257429 -0.0024394 0.0003204 -0.0097721 -0.0001334 0.0146751 -0.0003894 -0.0172457 -0.0011456 0.0099244 -0.0013257 -0.0018791 -0.1536198 -0.0018975 0.0016622 0.0025969 0.0012646 -0.0001922 0.0017482 -0.0160862 -0.0076161 -0.0074191 0.0008842 0.0149800 -0.0172457 0.0549928 0.1475042 -0.0003528 0.0009836 -0.0021693 0.0201761 -0.0079207 -0.1108571 0.1640718 0.2343049 0.1413214 -0.0077272 -0.0022293 -0.0050124 -0.0000611 -0.0738927 0.0011582 -0.0772380 0.0024622 -0.0713346 0.0830241 -0.0098184 -0.0049067 -0.0083711 -0.0001932 0.0001227 0.0803445 -0.0227312 -0.0528833 -0.0056633 -0.0024336 0.0360320 -0.0002557 -0.0227312 0.0040153 -0.0002421 0.0004336 0.0122930 -0.0068671 -0.0001065 -0.0000652 0.0507912 0.0507912 -0.0002421 -0.0045668 0.0012646 0.0008842 0.0002517 -0.0007607 -0.0142110 -0.0077116 -0.3237033 0.0012646 -0.0001803 0.0032930 -0.0012953 0.0152184 -0.0076766 -0.0190653 -0.3518422 0.0203111 -0.0011861 0.0013937 0.0993591 -0.0022226 0.0745487 0.0005079 -0.0443927 -0.0072411 0.0677420 -0.0401066 -0.0148408 -0.0011456 0.0321845 -0.0002864 -0.0441062 -0.0010415 -0.0001932 -0.0132644 -0.0506365 0.0003986 0.0006044 -0.1822502 -0.0000554 0.0012646 -0.4512311 -0.0101656 -0.1325261 0.0020773 0.2759638 -0.0511734 -0.0156888 -0.0011456 0.0754057 0.0007005 -0.3932039 -0.0038146 -0.0000108 -0.0018726 0.0015710 -0.0469531 0.0235722 0.0920851 -0.0232122 -0.0216853 0.0003505 0.0695103 0.0921365 -0.0067453 0.0379687 0.0108920 0.0365142 -0.0089011 -0.0002959 -0.0065321 -0.0001619 -0.0002791 0.0008842 0.0012630 -0.0025682 -0.0172457 -0.2985672 -0.0279377 -0.0025547 -0.0003395 0.0003956 -0.0260603 -0.0155253 0.0015560 -0.0043485 0.0218013 -0.0097721 0.0858754 -0.0022226 -0.2851963 -0.0701308 -0.0455460 -0.0047768 0.0020557 0.1881014 -0.0238865 0.0528584 -0.0281195 -0.0002339 -0.0026267 -0.0079207 -0.0086870 -0.0001334 -0.0009083 0.0012646 -0.0076875 -0.0001932 -0.0020862 0.0041355 0.0135751 0.0692008 -0.0015751 -0.0059273 -0.0016829 -0.0004780 0.1315212 -0.0000847 0.0002327 -0.0006935 -0.0001065 0.0076133 0.3434635 -0.0029043 -0.0003395 -0.0004526 -0.0397951 -0.4112031 -0.0004560 -0.1166998 -0.0031736 0.1234856 -0.0172457 -0.0246691 0.0012811 -0.0030420 0.3476269 0.0001315 -0.0245084 -0.0156920 0.0006721 -0.0983147 0.0267650 -0.0077288 -0.0185613 -0.0076072 0.3008446 0.2374840 -0.0060190 -0.0023501 -0.0000544 -0.0018610 0.1794829 -0.0396564 0.0520491 -0.0011456 -0.0260603 0.0215664 -0.0343028 -0.1472380 0.0149800 -0.0068671 0.0941410 -0.0312849 -0.0002726 -0.0078503 -0.0642971 -0.0009357 0.0386631 0.0530384 -0.0004623 -0.0100227 0.0413681 0.2949496 -0.0097721 0.0167500 0.2409678 -0.0135992 0.0020773 -0.5788720 0.0361806 -0.0002677 -0.0023501 -0.0353049 -0.0083068 -0.0001559 -0.3936948 0.0035704 0.0003424 -0.0002181 -0.0018726 -0.0018726 -0.3955739 -0.0004307 0.0148085 0.1101858 -0.0399873 -0.0269861 -0.0009083 -0.0287500 -0.0513927 0.2962355 -0.0153338 0.0015560 0.0035704 0.0001437 -0.0006214 -0.0238865 -0.1822502 -0.0115562 -0.0346545 -0.0346545 0.0687376 -0.0016996 -0.0739692 0.0086205 -0.0008333 -0.0399873 -0.0004786 -0.0172457 -0.0890994 -0.0228790 -0.0153338 -0.0263647 -0.0007275 -0.0022211 0.0139625 0.0000528 -0.0011456 -0.0008870 -0.1783064 -0.0031736 0.0191192 0.0753875 0.2033892 -0.1094848 0.0062141 -0.0004105 -0.1435379 0.0239728 -0.0007482 0.0141818 -0.0021963 -0.0000509 -0.1105284 -0.0006733 0.0321845 -0.0149484 -0.0361513 0.0002327 -0.0258044 0.0001315 -0.0004105 -0.0002421 -0.0009020 -0.0020365 0.0014974 -0.0215973 0.0934921 -0.0071259 -0.0265381 0.0011339 0.0001437 0.0752594 -0.0000156 -0.0096374 0.0188315 0.0017004 -0.0055502 -0.0000509 -0.0030295 0.0002327 -0.0849708 0.0042591 -0.0013384 -0.0250440 0.0535816 -0.0067453 -0.0244117 -0.0004786 -0.0185613 0.0001315 -0.0010053 -0.0013898 0.0725293 0.3005551 -0.0004283 -0.0402295 -0.0009713 -0.0009834 0.1111630 0.0486775 0.1234856 -0.0024394 -0.0022226 -0.0051087 0.1965041 -0.0044892 -0.0049913 -0.0016829 -0.0995521 -0.0408894 -0.0006177 -0.0025800 0.0910821 0.1653719 0.1204781 -0.0833948 0.0123572 -0.0011456 0.0404531 0.0575088 0.0018989 0.1202499 -0.0001334 -0.2026809 -0.0015551 -0.0005879 -0.0046371 0.0011170 -0.0004240 -0.0001486 -0.0501339 -0.1482036 -0.2665137 0.5116934 0.0009784 -0.0086007 -0.0170652 -0.2019781 0.1315212 -0.0013158 -0.0576379 0.0236524 -0.0566068 -0.0024408 -0.0804536 0.0002327 0.0363528 -0.0056334 0.0584046 0.0176888 -0.0024647 -0.0005205 0.0012646 0.3834213 -0.0101656 -0.0069385 -0.0000847 -0.0043736 -0.0078646 -0.0002959 0.0014973 -0.0008870 0.0320277 -0.0017715 -0.1938064 0.0063873 0.0406580 -0.0172457 -0.0659447 -0.0191513 -0.0522296 -0.0001932 -0.0001803 0.0082921 -0.0172457 -0.0067453 0.0020557 0.0607431 -0.0022226 0.0850109 -0.0172457 -0.0010161 -0.0046354 -0.0003999 0.0388441 -0.0451157 -0.0035141 0.0001315 -0.0172457 -0.0635007 -0.0002421 -0.0072715 -0.0002518 -0.0008870 0.0003505 -0.0000544 0.0002193 0.0732665 -0.0001932 0.0441338 -0.0013266 -0.0011419 -0.1798246 0.2326829 -0.0088903 -0.0002421 -0.0000544 -0.0049067 -0.0013257 -0.0002423 -0.0575317 -0.0000544 -0.0172457 0.1396843 -0.0190653 0.0236524 -0.0047768 -0.0001065 -0.0004283 -0.0022226 -0.0010580 -0.0011456 -0.0021429 -0.0235422 0.3622739 -0.0022600 -0.0068671 -0.0186527 -0.0008870 -0.0403269 -0.0007203 0.0139625 -0.0009357 -0.0135108 -0.0004780 0.1230975 -0.0522091 -0.0239910 -0.0001619 0.0155645 -0.0399873 -0.0080551 -0.0004780 -0.0021963 -0.0012879 -0.0172457 -0.0013158 -0.0061220 0.0001315 -0.0000544 0.1170005 -0.0009713 -0.0138636 0.0128302 0.0032930 -0.1410837 -0.0016580 0.0688500 -0.0065147 -0.0007607 -0.0172457 -0.0017101 0.0009756 0.0012698 0.0013135 0.2727029 -0.0017101 0.1016445 -0.0001314 0.0003424 -0.4112031 -0.0002423 0.0411243 -0.0021429 0.1483707 -0.0002423 -0.0029173 0.0020470 0.0049799 0.0139625 -0.0019825 -0.0076766 -0.0003528 -0.0091505 -0.0451157 -0.0067453 -0.0002339 -0.0060485 -0.0031148 0.0070839 -0.0002518 0.0148085 -0.0416552 -0.0077818 0.0024807 0.1182309 0.0008530 0.0009784 0.0461261 -0.0021605 -0.0573055 -0.0059273 -0.0522091 -0.0048225 0.0070726 0.0000350 0.0096872 0.2567357 -0.0843094 0.0002193 0.0003505 -0.2931112 -0.1261051 0.0768442 -0.0083711 -0.0101853 0.0064844 -0.0018642 0.0665658 -0.0022226 -0.0004780 -0.0021927 -0.0022226 0.0404531 0.0404531 -0.0250440 0.0066855 0.0111977 -0.2026809 0.0008842 -0.0101632 0.0001227 -0.0482486 0.0003505 -0.0003089 -0.0076875 0.0002327 -0.0003211 -0.0432355 -0.0172457 -0.0576379 -0.0004623 -0.0200706 -0.0011321 -0.0060934 -0.0883878 0.1967118 0.0519264 0.0004066 0.1571392 -0.0012411 0.0004336 0.0006863 0.2962471 -0.3122580 -0.0025019 -0.0003627 -0.0008164 -0.0010161 0.0850109 -0.0293418 -0.0026476 -0.0260125 -0.0227312 -0.0001334 -0.0244548 0.0229144 -0.0010794 -0.0013158 0.0177866 0.0004336 -0.0076655 -0.0140970 -0.0011456 -0.0097450 -0.0001166 0.0003728 0.3846469 0.0030410 -0.0001803 0.0501425 -0.0011456 -0.0018535 -0.0121316 -0.0013420 0.0456182 0.0010141 -0.0002339 -0.0050124 -0.0804536 -0.0001065 -0.0013158 -0.0001803 -0.0995521 0.0068848 0.0372226 -0.0005114 -0.0772634 0.3280174 -0.0097038 -0.0015551 -0.0060485 -0.0172457 0.0111144 0.0331048 -0.0302616 -0.0026476 -0.1573212 -0.0857295 -0.0901230 -0.0003437 -0.0137778 -0.0437679 -0.0009995 -0.0001334 -0.0108709 -0.0889568 -0.0001633 -0.0004277 -0.0623231 0.0068848 -0.0007482 -0.0000610 0.1669019 -0.0025019 -0.0011815 0.0001315 -0.0024299 0.0595266 0.0001315 -0.0370888 0.0180312 -0.4180483 -0.1136012 0.0234634 0.0129593 -0.0831545 -0.0067453 0.0012630 -0.0004780 0.1230975 -0.0118890 -0.1401108 -0.0002031 -0.0000544 -0.0062808 -0.0015551 0.0688500 -0.0012728 0.0017482 -0.0025682 -0.0804536 -0.0251660 0.0076133 -0.0025547 -0.0017886 -0.0001619 -0.0025778 -0.0227312 -0.0101601 -0.0025774 -0.0887968 0.0009687 -0.0022226 -0.0056345 0.0012646 0.0665658 -0.0489278 0.0026859 -0.0679456 0.0873535 -0.0072411 0.0032203 -0.1957860 0.0371679 0.0001315 0.0430109 0.0230247 -0.0004582 -0.0018930 -0.0027828 0.0143130 0.0048732 -0.0078161 -0.0017715 -0.0067453 -0.0009834 -0.0033537 -0.0809338 0.0140548 -0.0079665 -0.0062727 -0.0075572 -0.0207200 0.0433874 -0.0067453 -0.5788720 -0.0176637 -0.0035200 -0.0018791 -0.0001932 -0.0248190 -0.0004582 0.0969963 1.0904736 -0.0002518 -0.0637817 -0.0048729 0.0010615 0.0002327 -0.0097721 -0.0046371 -0.0179227 -0.0003211 0.1207298 -0.0003437 -0.0172636 -0.0055502 -0.0029596 0.0027952 0.0008842 0.0027952 -0.0062164 -0.0026515 0.0159553 -0.0081499 -0.0059273 -0.0059273 0.1070740 0.1093064 -0.1530257 -0.0013877 -0.0014934 -0.0062164 -0.0002966 0.0002327 -0.0569459 0.0985452 -0.0171145 -0.0002421 -0.0192884 0.0011582 -0.0011815 -0.0002118 -0.0315667 0.0041355 -0.0011861 -0.0025260 0.1657725 0.0000617 -0.0004593 0.0601968 -0.0022226 -0.0003297 0.0845810 -0.0011861 0.0007201 -0.0051452 0.0005079 0.0096872 -0.1639908 0.0002327 -0.0119856 0.0180426 0.0011838 -0.0212088 -0.0130104 -0.0011456 -0.0011456 -0.0010886 -0.0059273 -0.0050588 -0.0001619 -0.0049380 0.0635619 -0.0002518 -0.0077268 -0.0001710 -0.0001419 -0.0001334 0.0005079 0.1439595 -0.0049619 -0.3436858 -0.0167751 -0.0087252 0.1542038 0.0873700 -0.0141772 -0.0011815 -0.0001619 -0.0022440 -0.1724380 0.0008842 -0.0001619 -0.0060759 -0.0019025 0.0003505 -0.0034377 0.4988823 0.0002327 -0.0226695 -0.0011456 -0.0298513 0.0012646 -0.0043939 0.2786922 -0.0724128 -0.0126600 0.0001334 -0.0289475 0.0013961 0.0003505 0.0001315 -0.0009301 -0.0001065 -0.0004240 -0.0004006 -0.0001486 -0.0022226 -0.0000544 -0.0481850 -0.0015551 -0.0009413 0.0194972 -0.0067969 0.0001315 -0.0011456 0.0005079 -0.1001832 -0.0053129 -0.0039607 -0.0000611 0.0001315 0.0972804 0.0006421 0.0180426 -0.2111984 -0.0039607 -0.0001619 0.0012584 -0.1382172 -0.0052717 -0.0831930 -0.0001633 -0.0014181 0.3101296 -0.0001486 0.0002327 -0.0011456 -0.0251666 -0.0061694 -0.0062164 0.0002327 0.0007291 0.0762796 -0.0001065 -0.1260955 -1.0165280 -0.7365895 -0.0242745 -0.0067453 -0.0060572 -0.0072411 0.0165540 0.0004056 0.0695403 -0.1113210 0.0005079 0.0029050 0.0393037 0.0098248 0.2666832 -0.0011815 0.0630667 -0.0000516 -0.0001334 0.0010141 -0.0004481 -0.0026912 -0.0077549 -0.0001576 -0.4904493 -0.0075246 -0.0204878 -0.0062164 -0.0015551 -0.0001334 0.0002327 0.2229983 -0.3919454 0.2026707 0.0057646 -0.0001609 -0.0035591 0.3149754 -0.0012528 -0.0001166 -0.0002475 -0.0003013 -0.0002421 0.2645882 0.0004344 -0.0003966 0.0003793 0.0012346 -0.0000611 -0.0034377 -0.0018722 -0.0009413 -0.0011456 0.5185803 -0.0023712 -0.0062164 0.0011452 0.0566196 -0.0002421 0.3206022 -0.0059752 0.0197309 -0.0217319 0.0526016 -0.1050226 -0.0013224 -0.0015551 -0.0011456 -0.0004240 0.0012826 0.0002327 -0.2053059 0.3661115 -0.0049451 -0.0005061 -0.0001419 0.1250766 -0.0000544 0.0218222 -0.1095226 -0.0056345 -0.0043939 -0.3316686 -0.0001633 -0.0026810 -0.0395754 -0.0040262 -0.0002421 -0.5122011 -0.0337953 0.0768442 -0.0002421 0.0672991 0.0214598 0.0850109 -0.0000611 0.0001315 -0.1518652 -0.0059273 0.0002327 -0.0041090 -0.1683798 0.0008842 0.0002192 0.0002327 0.0119593 0.0025121 0.0540482 -0.0002282 -0.0004481 -0.0011861 0.5025734 -0.0005303 -0.0056345 0.0235572 0.0386737 -0.0426510 -0.0001065 -0.0001619 -0.0002421 0.0002327 -0.0001065 -0.0096448 -0.0019899 -0.0002905 0.0012646 -0.0244293 0.0004497 -0.8612090 0.2281108 0.2489984 -0.0027273 -0.0003267 -0.0004526 -0.0002421 -0.0285535 0.0191765 0.1275277 -0.0012247 -0.1505095 -0.0001643 0.0008842 -0.0004481 0.0001315 -0.0001619 -0.0625825 -0.6471535 0.0011452 0.0118262 -0.0242745 -0.0169493 -0.0156629 -0.0043252 0.0037961 -0.0009834 0.0245546 -0.0002868 -0.0136199 -0.0051142 -0.0059273 -0.0017863 0.0002192 0.6703015 -0.0035591 0.0003505 -0.0254672 0.0172861 0.0008842 -0.0059273 -0.0001643 -0.0015551 0.0047938 -0.1085236 0.0002327 0.0024465 0.0009833 -0.0015551 0.1460239 -0.0059273 -0.0059273 -0.0004143 0.0005079 0.0845810 -0.0001486 -0.0879916 -0.0002518 -0.0015551 -0.0001065 0.0001315 -0.1088261 -0.0059273 -0.0062164 0.2286883 -0.0011815 -0.0059273 -0.0038012 0.0079953 0.1957753 0.0008842 0.0396471 -0.0017715 0.0533289 0.0162314 0.0166393 -0.0334093 -0.0014181 0.0128864 0.1419508 0.1477982 0.4070364 0.2822204 0.1613253 -0.3349301 -0.2370189 -0.1194288 -0.0859572 -0.0859572 -0.0226093 -0.0859572 -0.0859572 -0.1809381 0.0633479 -0.1194288 -0.1809381 -0.1194288 -0.0859572 -0.0859572 -0.0859572 -0.0859572 -0.0859572 -0.0859572 -0.0859572 -0.1471163 0.0991208 0.2279947 -1.1711162 -1.4206305 2.7717460 -1.0357166 -0.6077391 1.8234549 -0.0985382 0.0984211 0.1801164 -0.0232658 -0.1257396 0.3290047
